dense/kernel:0
(784, 128)
[[ 1.46290272e-35 -2.95542790e-34  5.42007956e-34  1.39272587e-11
  -4.90291347e-35 -4.65808738e-34 -5.33210667e-08 -1.10901453e-07
  -4.06563291e-24  3.05643225e-34 -5.16419648e-34  2.83514775e-13
   2.25861285e-08 -7.43695589e-17 -3.53405581e-34 -1.28355902e-34
  -3.89359727e-08 -9.45988513e-13  1.70528224e-13  2.27902641e-34
  -4.68494419e-19 -3.75927685e-34 -4.38009399e-35  8.38149513e-35
   4.26636124e-34  1.92882460e-34 -5.55492761e-07  2.96330465e-18
   3.29715880e-34 -1.29560049e-34  3.72889817e-23 -3.85739987e-34
   4.67838486e-34 -5.29592114e-07 -8.59927428e-23 -7.66812618e-35
  -2.01479810e-13 -2.01452548e-34 -4.64194638e-34 -4.86213116e-34
   2.88677903e-34 -1.06353781e-07  1.84134578e-34  9.44660669e-12
  -7.27278007e-08 -2.38845215e-32 -3.16553649e-34  3.68846617e-34
   5.31208920e-15  9.81878089e-32  4.43453644e-17 -3.51482729e-34
  -7.97110066e-35 -4.62953756e-34 -4.00243704e-34 -3.89817437e-34
   1.38315102e-08  9.97136272e-35 -3.59990737e-34 -7.81008964e-08
   1.05541039e-05 -3.37846811e-34  2.32013197e-34 -1.09351510e-34
  -5.65040298e-34  2.50240707e-34 -1.99499506e-34  2.27767091e-34
   5.98748481e-13  2.26957837e-34  3.94586427e-17 -1.02311998e-13
  -5.80206603e-08  1.79729413e-35  9.27830512e-13  4.55629784e-34
   3.57212162e-34 -1.44604172e-35 -2.34090884e-34  4.05535265e-34
   3.37619610e-34 -1.40718578e-34 -3.67983089e-21  5.59782262e-23
   1.45493880e-20 -2.29651969e-34 -5.05927626e-34  7.99456501e-09
   5.28375160e-34  5.22444791e-34  2.37403574e-34  1.62753805e-34
  -1.76144890e-34 -5.81803582e-35  1.18212551e-10 -1.01780913e-34
   1.32478668e-08  5.38910528e-34 -6.14815837e-12  5.80964573e-34
  -5.85955270e-24 -2.90302197e-34  3.64655980e-34 -4.87485589e-34
  -5.85181681e-08 -1.17193073e-14  5.88561022e-08  5.34501322e-34
  -6.40662165e-07  4.45554971e-34 -2.07294712e-15 -1.82333867e-34
  -5.15793697e-34 -2.14415312e-34 -5.46499813e-34  2.73129160e-07
   1.61180284e-34 -2.98160262e-06 -3.66480322e-07 -2.62097588e-35
  -3.27824069e-34 -2.85615740e-35  1.26367112e-34 -6.00633991e-35
   3.53021525e-34  3.17487616e-34 -1.92538804e-31 -3.98025568e-09]
 [ 2.68136139e-34 -7.11958055e-05 -3.78499171e-34 -3.30008632e-10
  -1.40568921e-34  2.05287507e-34  4.13451698e-06 -7.02544407e-04
  -2.23813117e-07 -1.81615682e-13 -2.25652487e-34  5.21086360e-34
   5.47254334e-34 -7.18052470e-05 -3.24389582e-34  1.13139495e-32
   1.13217474e-03 -3.75669260e-34 -2.18499421e-34  4.55941933e-34
   6.56909979e-05 -3.37940759e-34 -5.38717352e-34  2.29247421e-09
  -2.67403751e-34 -2.14430135e-33  1.71218489e-04 -1.54070058e-05
   8.19608270e-13 -9.83212862e-35  7.02102807e-06  4.40589288e-34
   1.84063773e-34 -3.29176342e-04  5.56578976e-04 -4.90292816e-34
   6.85092801e-35  1.86230080e-34  5.73992973e-35  5.27675006e-34
  -2.02161173e-05  1.88439091e-34 -2.68380789e-34  4.82397902e-34
   4.95887653e-05 -3.05788890e-05  5.29667469e-34  1.07597222e-34
   1.53413393e-11  3.17257218e-07 -7.13064765e-06 -3.20847510e-35
  -3.24870593e-35  2.35491926e-34 -2.89959008e-34 -5.52980963e-24
   2.25122483e-03  2.41850937e-34 -1.91206229e-04  1.00537832e-03
   3.16992623e-34 -4.49503576e-34 -2.08227546e-10  2.67742027e-34
  -1.77732542e-34  2.53369909e-34  3.34957597e-34 -6.02166110e-05
   2.72496767e-15  2.84895887e-34  1.83891700e-06 -3.05556532e-34
   6.44742628e-04  4.10849969e-35 -2.58432433e-35  4.45711780e-34
   2.80946089e-34 -1.04792750e-34 -5.67901892e-34 -3.69105226e-36
  -4.99802841e-34  1.45957047e-34 -9.39934907e-33 -1.90504477e-03
   5.86028109e-05 -2.82272652e-34  3.35771880e-34 -5.41517921e-34
   5.61291940e-34  2.49204068e-34  3.61162282e-34  2.55284312e-35
   1.15512156e-34  8.23257469e-35 -5.63414442e-35 -3.82708497e-34
  -1.12854062e-13 -2.98404292e-35  1.99525516e-07  5.08376327e-34
  -1.19946961e-07 -4.32359312e-34  5.16226242e-34  2.15665010e-34
  -7.47640850e-04 -2.66642019e-06 -3.27675139e-06 -4.91181600e-34
  -1.49332060e-04  4.45289595e-12  4.78355541e-05  5.43210348e-08
   1.94533754e-34 -4.21110566e-34 -6.28413770e-35  1.84277841e-34
  -2.77656357e-35  2.82184031e-34 -5.52715974e-34  1.22323503e-35
  -1.62011361e-34  5.15736391e-34  3.97834308e-34 -2.21336632e-34
   5.05146657e-35  4.46416847e-34  2.07234593e-03  5.65254091e-34]
 [ 5.55992665e-34 -1.04815893e-34  4.45649745e-34 -5.28674176e-34
   2.25555785e-34  2.60657332e-34  3.80243910e-05 -1.36591279e-05
   4.57472161e-05 -3.54013348e-34 -5.58368128e-34  4.36491175e-34
   5.33187340e-34 -1.94441527e-03  2.51250300e-34  2.19114902e-34
  -3.67445376e-04 -1.84426247e-34 -3.06148871e-34 -6.25069121e-35
  -6.39951206e-04  2.25621447e-34 -5.77829906e-34 -4.84148654e-34
  -2.46891535e-34 -4.74315311e-05  5.38143446e-04 -5.71932615e-05
   4.85756143e-34 -4.31007493e-34 -6.70234673e-04  4.83106505e-34
  -3.95708867e-34 -2.07968944e-04 -3.13879136e-04 -4.91903060e-35
   3.19577976e-34 -4.59781116e-34  4.10120704e-34  1.05330263e-34
  -5.21018035e-34  7.17418896e-35 -1.89650585e-34  4.64188025e-35
  -1.41931432e-05 -3.80891324e-05  1.83901683e-34 -1.17180440e-34
  -8.78711415e-35 -3.11943004e-05 -4.98397349e-05  4.57842514e-34
  -5.37834583e-36 -3.05253016e-34 -1.15338725e-34  9.38875744e-23
   3.80901292e-06  1.20004749e-34  4.23463758e-34 -2.32887847e-04
  -2.71829395e-34 -3.56818417e-34  4.91253783e-34  1.78113843e-34
  -2.59047364e-34 -6.77052604e-35 -5.18447972e-34  5.70973680e-05
  -6.42161342e-15  4.47637088e-35  1.31840730e-04  3.15075098e-34
  -1.11584610e-04  2.62179138e-34 -4.15726985e-34 -2.73680982e-34
   4.37562160e-35 -2.04153568e-34 -1.37323546e-34  1.83055878e-34
  -4.56695397e-35  9.38920603e-35  1.20815373e-21 -9.77730087e-06
   4.46864753e-04  6.08053955e-35 -3.51726552e-34 -1.80873316e-34
  -8.97009637e-35 -4.91885611e-34 -3.68484189e-35 -4.28391651e-34
   3.60968418e-34  1.44377981e-34 -3.14163355e-34 -2.56346206e-34
   3.45772398e-34 -3.35870259e-34 -3.77699559e-34  4.56806656e-34
  -2.02988940e-06  1.95792222e-34  3.74295034e-34  4.66901213e-34
  -2.41357484e-04 -5.67728945e-04 -1.15798030e-05 -2.23977683e-34
   9.04407992e-04  3.70011459e-34 -4.58210998e-05 -7.89923020e-35
   3.84415076e-34  3.07620259e-34 -1.13389126e-34  3.23235967e-34
  -2.80815269e-34 -4.17043355e-34  3.58106548e-34 -1.66948805e-34
  -4.39442125e-34 -1.80329741e-34  1.78122292e-34  4.56095619e-34
  -1.18258474e-34 -2.23637800e-35  2.94417434e-04 -3.52751161e-35]
 [ 1.53263341e-34  2.12571990e-34  4.74275099e-34  2.40828487e-35
   4.73852288e-34  2.07766583e-34  3.61448401e-05 -3.66286794e-03
  -2.26211141e-05  1.21104387e-34 -3.42393908e-34 -1.07728455e-34
  -8.30073499e-35 -2.38466178e-04 -4.54830723e-34  2.45539556e-34
   4.44495585e-03  2.32901155e-34 -5.16778173e-34 -2.76944357e-34
  -1.85096196e-05  1.64636628e-34  4.82216665e-34  4.38006093e-34
  -1.10914343e-34  2.96979870e-05 -2.92984280e-03 -1.74261768e-05
  -1.30412282e-34  3.93341899e-34 -1.47339320e-04  2.53949047e-34
  -2.61678979e-34  4.06292500e-03  3.23880377e-04 -1.89302115e-34
  -4.46493897e-34 -2.72262767e-34  2.42396119e-34  2.45798256e-34
  -4.67374993e-34 -1.12407749e-34  1.05290085e-34 -3.64296352e-34
  -1.69030251e-03 -1.25925981e-05  2.79336120e-34 -1.58253039e-34
   3.67419035e-34 -1.01781858e-04  2.74618156e-04 -4.80371460e-34
   1.84308491e-34 -5.20464175e-34  4.31241352e-34 -1.67350361e-21
   3.75612313e-03  2.35065580e-36  8.21457493e-35 -4.10448154e-03
   1.84538470e-34  4.25340279e-34  3.84755005e-34 -1.11534026e-34
   2.39214570e-34  4.43929115e-34 -7.25320881e-35 -3.51378112e-05
   3.86751049e-34 -6.78300935e-35  7.74330518e-04 -2.54578648e-34
   8.64331052e-03 -1.11724355e-34 -1.72765527e-34  3.71279156e-34
   1.20031198e-34 -4.67009947e-34 -3.07215288e-34  2.03680615e-34
   1.64585097e-34 -1.81983676e-34  1.41125196e-22 -1.17573477e-02
  -6.82555547e-04  4.76858615e-34  3.92752361e-34  2.89823229e-34
  -1.74802553e-34 -4.49759659e-34 -2.37152955e-34 -1.94850954e-34
   1.97032460e-34 -8.83228343e-35 -3.02130517e-34 -1.61282233e-34
  -1.75058659e-34  4.74180600e-34 -2.66354898e-34 -2.82171082e-34
  -7.06143737e-06  3.34211411e-34  5.66802346e-34  5.19786061e-34
   2.25473708e-03 -3.43175442e-03  1.11361978e-05 -2.67689451e-34
  -6.96599903e-03 -2.04961399e-34 -8.83684959e-03  1.31625980e-35
  -2.93094111e-34 -4.64641325e-34  3.70763913e-34 -3.41010452e-34
  -4.44863403e-34  2.63334114e-13 -2.69577222e-34 -2.91082776e-34
  -1.41931989e-34 -2.46043526e-34  2.01374396e-34  4.57207472e-34
   5.14840398e-34  2.85843951e-34 -5.11481427e-04 -1.97569652e-34]
 [ 1.03103482e-34 -1.32530192e-34  2.07753588e-35  2.27569278e-34
  -2.00095312e-34 -4.37204782e-34  5.11068356e-06 -1.24772675e-02
  -1.81727391e-05 -2.78313349e-34  1.79037800e-34  3.30121058e-35
  -9.57586626e-35 -1.61641720e-03  1.87352207e-34  2.63562961e-34
  -9.64732096e-03 -1.67268805e-34 -2.90616734e-34  1.73149400e-35
  -7.96120730e-04 -1.19857537e-34 -1.68482675e-34 -2.94130176e-34
   2.11738583e-34  2.29247217e-08  9.17986967e-04 -1.12253392e-05
   2.75699619e-34 -1.01169564e-34 -9.89256660e-05 -4.43530457e-34
  -1.35032629e-34 -1.68948562e-03 -2.86271621e-04  5.51375911e-34
   5.36470826e-35  1.42098303e-34  2.54680081e-34  5.37014906e-34
  -2.61192824e-34 -4.21514642e-34  8.02560503e-35 -3.28868192e-34
  -1.28642228e-02 -7.15990551e-04 -4.51656245e-34 -3.83849828e-34
   3.57258906e-34  1.61796808e-03 -1.47921208e-03 -8.06918786e-35
   3.08954859e-34 -4.88128805e-34  1.85688790e-35  5.62593888e-21
   1.53313642e-02  4.31372631e-34  3.66404436e-34 -1.27912005e-02
   4.65923625e-34  7.00593600e-35  1.63157238e-35  4.68891656e-34
   4.27407358e-34  6.26380073e-36  2.91618980e-34  1.48527534e-03
   5.17511755e-34 -1.12171158e-34  4.13576467e-03  4.11648571e-34
   1.55556444e-02  4.46227115e-34  2.93536965e-34  3.94132741e-34
  -3.34143453e-35 -3.76807699e-34 -3.99867362e-34 -2.25846444e-36
  -3.75820995e-34 -4.98120277e-34 -3.17014546e-22  2.25934491e-04
   9.06751317e-04  1.05798349e-34 -3.04722735e-34  2.32373973e-34
   1.94320512e-34  2.57852262e-34  1.22363326e-34 -5.10261756e-34
  -2.44163929e-34  9.78297827e-35  7.64421221e-35  3.02908295e-34
  -3.96990432e-34  5.62759747e-34  1.60842525e-35 -9.24544674e-36
  -1.15283910e-04 -5.88088161e-34  1.55927627e-34  7.08681667e-35
  -1.19901532e-02 -5.58746699e-03 -6.12557778e-06 -1.35123466e-34
  -1.19198496e-02 -5.64491765e-34 -1.13180047e-02 -5.71455558e-34
   7.40584744e-35 -9.54073459e-35 -1.04851800e-35 -1.52423506e-34
   5.52560497e-34  1.94523101e-34  2.26093114e-34 -1.77452937e-34
   3.82119395e-34 -2.14829927e-34  3.98005053e-35  1.09204344e-35
   5.41720051e-34  5.03102123e-34 -1.58777125e-02 -5.00162836e-34]
 [-2.00109408e-34  2.75443214e-34  2.27956640e-34  4.33848057e-34
  -9.99597922e-35  4.35065796e-34 -3.22884938e-04 -1.48684587e-02
  -2.86094873e-05  2.00252993e-34 -4.20495451e-35 -6.83720779e-35
  -1.75765678e-34 -7.08353124e-04 -5.43452574e-34 -3.79901843e-34
  -9.62179806e-03  2.10244603e-34  9.01383762e-36 -4.22814803e-34
   1.03746937e-03 -4.75675911e-34  5.26132445e-34  1.45382616e-34
  -3.12482582e-34 -7.74798181e-08 -4.12000576e-04  3.57286008e-05
  -3.34754388e-34 -4.97163581e-34  4.45885956e-03 -1.37455514e-34
   5.77434853e-35 -1.83406798e-03 -3.25868069e-03 -3.82753818e-34
  -3.47150252e-34 -5.70433521e-34 -2.74757088e-34 -4.84000018e-34
  -1.61548280e-34  3.41221123e-34  4.52246931e-34 -3.48754021e-35
  -1.43883321e-02 -3.45337554e-04  2.06592076e-34 -3.44182978e-34
   4.75124439e-34  1.60528871e-03 -1.45829190e-03  3.52765120e-34
  -3.38452833e-34 -4.82910872e-35  2.68087466e-34  3.09096837e-21
   1.96829922e-02 -5.56897796e-34  1.13229126e-34 -1.05473092e-02
  -1.14791431e-34 -2.47683915e-34  7.27499678e-35  4.62615756e-34
  -3.29847388e-35 -3.98250277e-34  4.08910404e-34  1.05218799e-03
  -4.65807085e-35  1.91892393e-34  6.37738686e-03  4.23061794e-34
   1.40375337e-02 -4.97193060e-34  3.17118988e-35 -5.21311816e-34
   1.51137304e-34  6.47534609e-35  2.23507968e-35 -3.16552731e-34
   4.97252294e-34 -5.45886720e-34 -4.10684963e-23  1.86184864e-03
   1.84835785e-03 -1.99843522e-34  4.93341112e-34 -1.59149675e-34
  -4.19021951e-35  4.59027008e-34  3.87640844e-34 -1.28870938e-34
  -2.39441909e-34  1.74339174e-34  2.65422033e-34 -4.51297031e-34
   3.20455211e-34 -2.22375315e-34  1.33540061e-34  5.75598809e-34
  -1.29510983e-04  1.89966821e-34  5.82422507e-34 -5.50447454e-34
  -1.25019737e-02 -5.70784463e-03  1.14557297e-05  2.89911529e-34
  -1.80626735e-02 -8.25336165e-35 -8.42854660e-03  5.56176887e-34
   1.37020833e-34 -1.94019475e-34  3.36159862e-34 -1.35279104e-34
   5.00270835e-34  4.46586834e-35 -3.82142285e-34 -5.55169773e-34
   1.11032157e-34 -1.03978812e-34 -8.10265731e-35 -1.74611340e-34
   5.38622761e-34 -3.90794796e-34 -1.27602937e-02  5.08895841e-35]
 [-2.80804340e-34 -1.53735376e-34 -1.66935856e-34 -2.03355931e-34
   1.55407689e-34 -4.67683284e-34 -2.09060917e-03 -1.50847174e-02
  -5.13984560e-05  2.22241901e-38 -1.96101570e-34  2.87819241e-34
  -2.00116847e-34 -2.04856321e-03  4.04660257e-34  4.48843416e-34
  -1.06284656e-02 -2.13986211e-34  1.78851098e-34 -1.99764153e-34
   4.08897921e-03 -4.08496180e-34  5.57311698e-34 -2.04709265e-34
   2.21289107e-37 -9.29986563e-05  4.90154664e-04 -3.87776614e-04
   1.40884881e-34 -3.28197380e-34  1.79267619e-02  4.68576385e-34
   2.64979202e-34 -1.76404417e-03 -1.18124802e-02  4.04302007e-34
  -3.33597215e-34  4.71202926e-34  2.53556336e-34 -5.82164909e-34
  -5.74983189e-34 -4.47062818e-34 -2.73606733e-34 -3.03153817e-34
  -2.00492628e-02 -2.35243104e-04 -2.91726864e-34  3.24064094e-34
  -4.25075288e-35  5.66036440e-04 -1.66506961e-03 -4.99931778e-36
  -1.70534108e-34 -4.80633146e-34  4.08958020e-34  2.04898535e-21
   3.08574811e-02  1.77099703e-35 -2.69252491e-36 -7.65510835e-03
   4.66303456e-34  8.65971076e-35 -4.19373314e-34 -2.91443666e-34
  -5.76000313e-34  2.45098011e-34  8.00548387e-36 -4.14912851e-04
   4.64878491e-34 -4.66524596e-34  9.89362411e-03 -2.28016058e-35
   1.77964177e-02 -1.77987293e-35 -4.91507938e-34 -4.16424751e-34
   3.17956987e-34 -8.83692572e-35 -3.11525839e-34 -5.21171262e-34
  -4.84970031e-34 -2.16165169e-34  4.72022216e-21  1.00054145e-02
   4.49053803e-03  8.78576015e-35 -2.02545299e-34 -1.36264591e-35
  -5.22992039e-34 -8.39330288e-35  2.30711131e-34 -4.17152088e-34
   1.82925460e-34 -1.45583804e-34  2.57375131e-34  2.43956128e-34
   5.30874371e-34 -4.75824547e-34  1.51266057e-34  3.84334972e-34
  -1.57424918e-04 -3.31126886e-35 -5.32505507e-34  3.65958253e-35
  -1.32822627e-02 -3.47780925e-03  5.52239999e-06  1.13247493e-34
  -3.82064842e-02  1.77049883e-34 -1.67611856e-02  1.60456816e-34
  -8.70560900e-35 -6.84157457e-35  3.59560166e-34  3.74843108e-35
  -3.16787899e-34  2.60991475e-34  4.91697027e-34  1.75826037e-34
   5.28949132e-34 -2.41176153e-34 -3.11637098e-34  4.13613575e-34
   3.06673114e-34 -5.60077829e-34 -8.35936610e-03  2.75222326e-34]
 [ 4.45399769e-34  1.46945656e-34  1.04832228e-34 -2.95207498e-35
   3.59778207e-34  3.23183437e-34 -9.24538297e-04 -1.61483102e-02
  -7.17122530e-05  1.53473851e-34 -1.61038272e-34  2.38448111e-35
  -4.39642510e-34 -6.30904967e-03  1.86459267e-34  1.14711580e-34
  -8.29854421e-03 -1.34244187e-34  4.87602955e-34  4.09457238e-34
   2.64362432e-04 -4.03662602e-34 -3.75660995e-34 -1.82513268e-34
   4.38548932e-37  3.01633318e-05  5.48872864e-03 -2.16049887e-03
  -1.41536522e-34  4.04423780e-34  1.60186496e-02  4.47779043e-34
   4.02642998e-34 -5.23430435e-03 -1.56575423e-02 -3.14507646e-35
   2.67515790e-34 -3.11872541e-35 -3.72911211e-34 -1.63113685e-34
  -1.27137245e-34  5.28091159e-34 -4.59135512e-34 -4.05110572e-34
  -1.62490904e-02 -1.30315276e-03  2.86097210e-34  2.18501716e-34
  -4.78222510e-34  5.11978869e-05 -2.51737377e-03 -5.18474926e-34
   4.94798954e-34  3.46242688e-34  4.27524862e-34  2.30057588e-23
   3.92949991e-02  4.91895759e-34 -3.35215403e-34 -4.85953921e-03
  -1.95892047e-34 -5.26828845e-35 -2.87516574e-34 -1.43589011e-34
  -4.09082825e-35 -4.55376961e-34  1.92827726e-34  7.32130604e-04
   1.86827057e-34 -3.08122462e-34  1.64235830e-02 -8.84787710e-35
   1.88425221e-02  3.15267837e-34 -1.91308009e-34 -2.98920178e-34
  -3.59657053e-34 -2.30022181e-34 -2.57368588e-34 -6.44597939e-35
  -2.69285988e-34 -1.29012663e-34 -2.35982528e-20  1.10051557e-02
   5.63086756e-03  1.07549835e-34  1.23257631e-34  2.52963997e-34
   2.93248762e-34  1.44288247e-34  2.68676958e-34  3.22127145e-34
   2.55734536e-35  4.05581964e-34  4.02448629e-34  5.23953878e-34
   1.79535870e-35  2.32771873e-34 -1.77364327e-34 -3.42683465e-34
  -2.15294247e-04 -3.62581508e-34 -4.47814950e-34  2.15507512e-34
  -1.12499287e-02 -4.08198219e-03 -1.06654501e-04 -1.58099944e-35
  -4.12666053e-02  2.67176711e-34 -1.74339190e-02 -1.60293945e-34
   2.49768351e-34 -9.79971988e-35 -2.33518221e-34 -3.76952477e-34
  -3.32947984e-35  1.80794245e-34  2.71987559e-34  2.95613779e-34
   3.57292725e-34 -1.26297271e-34 -5.14149566e-34  5.55785117e-34
  -1.33468567e-34  2.26207840e-34 -1.01298569e-02 -5.56891367e-34]
 [ 9.74525110e-35 -4.57515626e-34  1.64523854e-34  3.12477347e-34
  -5.28467822e-35  2.89258028e-34 -2.02588760e-03 -2.02882066e-02
  -2.20514339e-05  3.07823262e-34  3.27257995e-34 -3.95877110e-34
  -3.83315851e-34 -1.29671693e-02  3.17083747e-34 -5.76897363e-34
  -1.40844826e-02 -3.04608262e-34 -2.31561229e-34  3.44109533e-34
  -9.74023435e-03 -1.92596989e-34 -9.18056496e-36  1.46811438e-35
   4.92531215e-35  1.33372407e-04  4.54356801e-03 -2.95723672e-03
  -3.67603578e-34  9.22310776e-35 -1.45361237e-02  5.34984790e-34
   4.23380464e-34 -1.44055365e-02 -2.92412564e-02 -2.97905947e-34
  -8.76023160e-35  4.38364251e-34 -4.09181318e-34  1.71635308e-34
   5.46588802e-36 -1.02931336e-34 -4.95381880e-34 -4.71152049e-34
  -9.61403269e-03 -4.01024148e-03  3.45209194e-34  4.14180338e-34
   4.89542015e-34 -6.22846943e-04 -3.80872190e-03  4.18199748e-34
   5.08062066e-34  2.76507472e-34  2.79957342e-34 -6.61301779e-21
   5.25802374e-02  5.54322590e-34 -1.96396247e-34 -5.02608018e-03
   5.38949742e-34 -1.83767144e-34 -3.91520159e-34  3.24534475e-35
   5.51113720e-34 -3.63555584e-34  8.74508793e-35 -5.33867627e-04
  -2.16181056e-34  2.29678762e-34  2.53656637e-02  3.05145293e-34
   2.49725711e-02  2.20217479e-34 -1.74943842e-34  3.25230267e-34
  -1.68616537e-34 -3.83476724e-34  2.06830022e-34 -8.82488379e-35
  -1.11746143e-34  2.92475622e-34 -5.02175566e-20  2.69625406e-03
   2.75777187e-03  4.03900685e-34  3.07904490e-34  7.07971778e-35
   3.13662254e-34 -1.35019680e-34  4.33054323e-34 -4.04102448e-34
   5.13558846e-35 -2.59368030e-34 -2.35890837e-34  8.61045020e-35
   3.24531766e-34  4.78526129e-35 -1.93870013e-34  5.19821510e-34
  -3.80615587e-04 -1.21832092e-34 -1.14394197e-35 -4.94399103e-34
  -1.57489851e-02 -7.44658010e-03 -6.11736497e-04  3.23461630e-34
  -4.97795567e-02 -1.80632615e-34  1.86758097e-02 -4.42430497e-34
   3.92746254e-34 -5.21823019e-34  2.92431954e-34  5.23922424e-34
   3.76664986e-34 -2.70917285e-34  1.21571474e-34  2.66824544e-34
  -9.92063164e-35  5.10152793e-34 -5.24430412e-34  4.50318386e-34
   4.41813713e-35 -1.01569083e-34 -7.24542933e-03  4.85585466e-34]
 [-5.33228689e-35  4.58255131e-34 -3.26344737e-34  5.61842678e-34
   2.91198397e-34  2.01233521e-34 -1.68967992e-03 -2.25817244e-02
   3.89761466e-04 -2.70008871e-35 -7.02532592e-35 -2.83775242e-35
  -5.09396252e-34 -3.69780585e-02 -4.87843655e-34  5.17881669e-34
  -6.75472245e-03 -4.32063693e-34  4.62841166e-34 -5.07149222e-34
   5.90460899e-04 -2.97869763e-34 -4.85849494e-34 -2.61875506e-34
   3.25620361e-34  3.41209925e-05  7.78600341e-03 -3.56327021e-03
  -2.26127461e-35 -1.70332782e-34 -1.94145571e-02  1.46024477e-34
   4.70632719e-34 -6.41325861e-02 -2.74542402e-02 -8.67473964e-35
  -3.63551888e-34  5.45646937e-34 -2.33390500e-34  4.89658876e-34
   2.11576034e-34 -1.71699351e-34 -4.64146654e-34 -3.19572202e-35
   2.89632063e-02 -6.33636210e-03  8.92092994e-35 -2.82913756e-34
  -2.87382770e-34  2.98258592e-03 -1.08871441e-02 -2.22745274e-34
   1.92281971e-34  5.55254950e-34  1.85928056e-34  3.46717883e-21
   4.84676883e-02 -6.39092401e-35 -3.80279976e-34 -1.21623641e-04
   2.17349893e-34  2.68867012e-34  4.88677384e-34  1.29792025e-34
  -3.30508053e-34  5.51623407e-34 -5.66078590e-35 -2.78923567e-03
   3.36822019e-34 -4.17992418e-36  1.51142860e-02 -1.87091245e-34
   5.24944300e-03  7.30872681e-35  1.21415939e-35  3.16107535e-35
   5.57951424e-34 -3.30655449e-34 -1.89974558e-34 -4.23476615e-34
  -3.84150750e-34 -3.93391554e-35  2.42925708e-20  1.23221800e-02
  -3.32483184e-03  8.66746857e-35  5.67871357e-34  3.06717700e-34
   4.41461266e-36 -2.33858999e-34 -1.21840012e-34  2.34959923e-34
  -2.58334353e-34  2.88699323e-34 -2.31814603e-34 -3.51908295e-34
   1.68598377e-35 -3.09184884e-34 -2.20428655e-34  3.61900135e-34
  -8.27401818e-04  5.58457300e-34 -6.83120060e-35  1.31790423e-34
  -6.45134319e-03 -3.19853835e-02 -6.95861352e-04 -9.15107429e-35
  -5.58835454e-02  4.39113813e-34  3.63756530e-02 -4.13995060e-34
  -2.88116581e-34  2.77268812e-35  5.48916924e-34 -2.59872758e-34
   4.72191202e-35  1.00176960e-34  3.33839385e-34  2.70023450e-34
   8.80018980e-35  2.97334959e-34  1.08310164e-34 -6.50655064e-35
  -2.76426703e-34  4.04792500e-34 -1.37309339e-02 -4.05534118e-34]
 [-8.01951060e-35  1.94495298e-34  1.50245948e-34  4.70489088e-35
  -7.35046031e-35  3.57217098e-34 -2.31992733e-03 -2.96461303e-02
   2.22051656e-03 -1.69137394e-34 -2.31248805e-34  1.59838568e-34
   4.01836866e-34 -3.83296385e-02 -4.97102143e-34 -5.34171724e-34
  -2.04117540e-02 -1.52549424e-34 -3.93948932e-34 -3.83317228e-34
   2.31466964e-02  3.16419202e-34  4.16877133e-34 -2.06200512e-34
  -3.75997572e-34 -2.85033777e-04  2.28768568e-02 -2.24974519e-03
  -2.79444234e-34  1.06492441e-36  1.71100646e-02  4.21229538e-34
   1.48646748e-34 -1.05817512e-01 -1.46615254e-02  1.24082348e-34
  -3.05308576e-34 -3.01492260e-34  3.74386043e-34  6.75020629e-35
   3.43437526e-34 -1.61547879e-34  4.36889235e-35 -1.05267310e-34
   6.03690222e-02 -4.78702085e-03  2.78208794e-34 -1.78905993e-34
  -3.30726415e-34  1.13185449e-02 -6.41320972e-03 -5.77469681e-34
   5.00391139e-34  4.22518903e-35 -1.38733542e-34 -2.72653723e-20
   4.03469726e-02  8.16993714e-35  3.56929722e-34 -1.35378842e-03
   1.60422285e-34  4.57882784e-34 -4.16871301e-34 -4.21900902e-34
  -8.00277300e-35  3.57859097e-34 -4.53395334e-34 -5.30345086e-03
  -3.92985623e-34  2.10345163e-34  5.72262816e-02 -5.17162964e-34
  -1.41766975e-02 -3.98891335e-34  5.88567037e-35  6.82162618e-35
   4.08747625e-34  4.49528876e-34 -4.92407329e-34  2.04915252e-34
  -2.51056263e-35 -1.98543889e-34  1.30778496e-19  4.39355597e-02
  -3.49635282e-03  1.66564037e-34 -1.54042588e-34 -3.51275307e-35
  -1.05601304e-34  5.17645192e-34 -4.63742577e-34  1.74045898e-34
   4.90490263e-34 -1.78649060e-34  5.34934648e-34 -1.65736484e-34
   1.40282612e-34  3.59762600e-35  3.53308924e-34 -5.59499357e-34
  -2.09852494e-03  1.01507243e-34  2.63099697e-34 -2.58304047e-34
  -2.91278325e-02 -9.38826427e-02  1.07457727e-05 -4.11363330e-34
   7.17596849e-03  1.53162931e-34  2.63167117e-02  2.88738858e-34
   8.56544909e-35 -1.87096847e-34 -1.47039661e-34 -3.42286139e-34
   1.50242114e-34  1.56356740e-34 -2.59930178e-34  4.02279789e-34
   4.62924048e-34 -4.40195497e-34 -5.70097082e-34  4.72462495e-34
  -2.26334113e-34 -2.54328305e-34 -1.85021404e-02  4.27693518e-35]
 [-2.77805820e-36  1.97840704e-34  3.03323208e-34  4.97892800e-34
  -1.99581653e-34  3.58739226e-34  2.50177202e-03  1.10523393e-02
   7.59207038e-03  3.37605353e-34  2.07861243e-34 -3.42673731e-34
  -2.01862341e-35 -3.18112783e-02 -4.68602236e-34  2.25676089e-35
  -3.26021090e-02 -4.89729773e-34  1.04590666e-34  4.25019222e-34
   2.75857300e-02  3.60871485e-34  2.81534203e-34  1.76368486e-34
  -4.53408145e-34 -8.68520583e-04  3.86235528e-02 -2.45119864e-03
  -4.54514579e-34 -4.22078971e-34  5.63304015e-02 -2.09888833e-34
  -3.02061709e-34 -3.60740907e-02  2.57122684e-02 -5.22768924e-34
   5.20263055e-34  1.06973682e-34  1.29362522e-35 -4.60504412e-34
  -4.88809903e-34 -2.89970487e-34  2.96549858e-34  4.10461735e-34
   1.26239816e-02 -3.89710488e-03  4.78315172e-34 -1.15025049e-35
   9.80493843e-35  7.86106661e-03 -1.72871118e-03 -1.71317557e-34
   5.64485795e-34 -2.25425585e-34  1.08312988e-34  9.66878816e-21
   1.82066429e-02 -4.84074635e-34  4.12140671e-34 -1.07371798e-02
   4.11370401e-34 -3.87545794e-34  4.13982754e-34  3.42827394e-34
  -4.08234265e-34  1.50924750e-35 -2.07058784e-34  3.46388388e-03
  -6.54408266e-36  3.36195471e-34  7.01067597e-02  1.19745348e-34
  -2.34426837e-02  1.37554283e-34  1.35560683e-34 -4.58435817e-34
   3.70238476e-34 -1.81142589e-34  8.26974855e-35 -2.53715486e-34
  -1.56119930e-34  2.65998507e-34  1.04440341e-20  5.47543354e-02
   9.96777974e-03  4.89784415e-34 -7.70705582e-36  2.82094423e-35
   4.36888088e-34  4.65104222e-34 -4.47107771e-34  2.93040341e-34
  -1.01709270e-34 -5.31299110e-34 -2.53086321e-34  9.83767778e-35
  -4.95647928e-34 -2.72440216e-34  4.70028993e-35 -2.17735051e-34
  -2.10155454e-03 -1.84323943e-35 -4.84176297e-34 -2.43371044e-34
  -6.00435361e-02 -6.56034574e-02 -2.50169123e-03 -2.13294368e-34
   7.25307539e-02 -9.01911127e-35  1.80508718e-02  4.31509788e-34
   2.73319220e-34  3.99701783e-34 -2.34186783e-34  3.98014122e-34
   4.02963321e-34  3.64747345e-35 -2.13114026e-34  3.54517525e-34
  -3.63857402e-34 -5.06485664e-34  1.20850554e-34  4.62875696e-34
   3.06845788e-34  8.06317378e-35 -1.20804191e-03  4.65274348e-34]
 [ 3.15737806e-34 -2.63559241e-34 -4.05942785e-34 -3.24050318e-34
  -3.52428015e-34 -2.31831639e-34  5.57651184e-03  4.57468256e-02
   9.63994395e-03 -4.65760800e-34 -5.69513605e-34 -4.87958174e-34
   4.92763788e-34 -2.61729062e-02 -7.41267656e-35  3.22881804e-34
  -9.63079836e-03  2.89264226e-34  4.65137031e-35 -1.81926680e-34
   1.19411647e-02  2.46093691e-34  2.08556024e-34 -7.12984619e-35
  -2.01793694e-34 -3.63942143e-03  3.48054506e-02 -2.90554995e-03
  -1.57554665e-34  2.98307658e-34  2.89524570e-02  5.56427598e-34
   2.92370493e-34  4.85485755e-02  1.95179768e-02 -1.94458248e-35
  -2.58981793e-34  5.75432265e-34 -5.43683081e-34 -2.46540769e-34
  -1.47711059e-34  1.25911872e-34 -1.25622418e-34 -3.82821041e-34
  -8.11533108e-02 -1.58805412e-03 -5.60956328e-34  4.03616041e-34
  -2.08129379e-34 -1.65171293e-03 -6.88697072e-03 -3.45521641e-34
  -2.71801248e-34  1.54024348e-34  2.18638942e-34 -1.66503686e-20
  -4.98010311e-03  3.14349092e-34  5.32828401e-35 -9.99892596e-03
  -4.51467753e-34  2.09110710e-34 -5.53414200e-34 -5.61080076e-34
  -4.34938076e-35 -4.10199315e-36  2.28865788e-34  7.29237404e-03
  -3.06049689e-34  1.70535624e-34  2.71841139e-02 -2.81706142e-34
  -1.28317708e-02 -3.63081897e-34  4.20518525e-35  2.66039741e-35
  -1.03338340e-34 -7.59028871e-35 -2.81828272e-35 -5.24901023e-34
  -2.39801812e-34 -1.82235317e-34  1.02866216e-19  5.74812107e-02
   8.79144017e-03 -5.95521337e-35 -5.83216816e-35 -2.98600659e-34
   2.74000547e-34 -1.21951627e-34  3.19859658e-34 -2.91133125e-34
  -2.90946239e-34  1.03831382e-34  8.57668918e-36 -2.90106932e-34
  -1.09013762e-34  9.95713625e-35 -1.42112170e-34  6.58510730e-35
  -1.39233761e-03  3.60062552e-34 -5.69842284e-34 -2.55165799e-34
  -3.36592831e-02  9.46248844e-02 -1.74953148e-03 -3.58239709e-34
  -3.43372533e-03  5.60005050e-34 -2.53405087e-02 -4.87037248e-34
  -5.33219299e-34  8.13610035e-35 -2.04156599e-34  4.55695905e-34
  -4.75634264e-34 -2.86428025e-34 -1.69891696e-34  4.61595372e-34
   8.32994671e-35 -2.27198607e-35 -3.12413659e-34 -3.93046281e-34
   1.73078468e-34 -2.18139931e-34 -4.10277164e-03 -8.37404612e-35]
 [ 7.54529448e-35 -4.94580937e-34 -3.61408333e-34 -2.77007195e-34
  -2.97300200e-34  1.03357189e-34  1.07210446e-02  4.65681478e-02
   5.03075635e-03 -2.03872529e-34 -1.38874774e-34 -2.52607583e-34
   1.86855755e-34  2.16935240e-02  1.53496804e-35  3.34512402e-34
  -1.32153742e-02 -3.88344625e-34  1.18926325e-34 -2.12698471e-35
   1.59430522e-02 -1.16967829e-34 -5.13721613e-34  2.08066931e-34
   4.46225462e-35 -9.85353440e-03  3.19888256e-02 -2.43195868e-03
   7.57731694e-35 -8.25745866e-35  2.33835820e-02 -1.51219703e-34
   4.13869245e-34  1.21827230e-01  2.53861155e-02  2.96752263e-34
  -2.96576880e-35  2.58965171e-34  8.83951548e-35  2.42785501e-34
   3.82237335e-34 -5.01719815e-34  3.66611806e-35 -4.45066635e-34
  -1.36183545e-01  4.01152903e-03  1.07484666e-35 -4.53827920e-35
   4.31374284e-34 -1.19417789e-03  8.51745997e-03 -2.80305812e-34
   6.16957636e-35  3.28408395e-34  1.93390356e-34  6.05991547e-21
   2.69825011e-02  1.95142531e-34 -4.96512146e-34 -1.54946549e-02
  -4.48626592e-34 -9.94402329e-35  5.93117773e-35  2.06074675e-34
   2.50277372e-34 -2.62562803e-34 -8.72312317e-35  6.04295498e-03
  -6.42586168e-35  1.71621314e-34  5.84401824e-02  1.65860428e-34
   5.00226347e-03 -3.25499942e-34  4.03746677e-34 -5.78557656e-34
  -2.72915304e-34  3.96065005e-34 -2.26569580e-34  5.31782624e-34
   3.22092294e-34 -3.95252032e-34  1.22379926e-20  3.45063396e-02
  -5.33956895e-03 -2.92206911e-34 -1.97547496e-34 -3.23169226e-34
   4.11776452e-34  4.23128237e-34  4.01028714e-34  8.39049386e-35
   4.94809010e-34 -4.56702009e-34  5.42423098e-34 -2.61308859e-34
   3.19572890e-35  7.07753153e-35  1.46968799e-34  2.03922097e-34
   4.91935248e-03 -4.96551727e-34 -3.27659798e-34 -2.45669526e-34
  -3.50501947e-02  4.54093926e-02  9.26010427e-04  3.81104911e-34
  -1.89507157e-02  1.60305069e-34 -9.10827368e-02  1.66938829e-34
  -3.33174956e-34  8.07240440e-35  4.23788902e-34  1.15709293e-34
  -4.02887281e-34 -7.67942137e-35 -1.08563722e-34  3.42905386e-34
   2.51651162e-34  2.28683931e-34  1.44111636e-34 -2.27601788e-34
   3.54106492e-34  5.81414567e-34 -1.06632644e-02 -3.98902585e-34]
 [-2.83950762e-36  2.48146582e-34 -3.70317592e-34  4.13741731e-34
  -2.74059230e-34  3.10600643e-34  1.09337876e-02  4.75569814e-02
   4.13924921e-03  2.73407244e-34 -2.51142945e-34 -5.19259477e-34
   2.71175136e-34  4.84843627e-02 -5.01042345e-34  2.64439485e-34
  -1.58367269e-02  1.47059842e-34  3.84853223e-34 -3.83235747e-34
   1.10300416e-02 -6.76484659e-35  7.24647670e-35  1.29452337e-34
   5.77926058e-35 -8.03180691e-03  2.47932766e-02 -6.14943728e-03
  -2.02401944e-34  4.23436598e-35  1.87952295e-02  1.71749425e-34
   3.31912837e-34  1.52675956e-01  2.18768064e-02  1.67816168e-36
   2.33316779e-34 -2.79384633e-34 -4.04484116e-34  3.75430396e-34
  -1.61054401e-34  4.54534003e-34  1.27078883e-34 -4.91408181e-35
  -1.47461146e-01  3.53076588e-03 -5.23551581e-35  1.05225100e-34
  -1.17678395e-34  1.10492355e-03  1.25053925e-02 -5.79174378e-34
   4.73260913e-34  3.58862331e-34 -2.01247595e-34 -9.53923423e-24
   4.07742336e-02  2.62745120e-34  2.36880020e-34 -2.24927161e-02
   2.43050814e-34 -5.83260506e-34 -1.47436563e-34 -2.05505708e-34
   1.94578294e-35 -2.67625625e-35 -1.30143640e-35 -3.31475423e-03
   4.39813691e-34  1.79995839e-34  7.27043301e-02  2.70343543e-34
   1.22991558e-02  4.22219709e-34  3.33471389e-35  1.10709757e-34
  -4.77982808e-35  1.04282122e-34 -3.64072411e-34  1.37353278e-34
  -1.44251111e-34 -5.58806045e-34  3.50644382e-20  6.36750087e-03
  -6.65675569e-03  2.17835347e-35  3.53838356e-34 -1.23914209e-36
   4.92109231e-34 -5.19683252e-34  1.85807775e-35  3.32211624e-34
   3.92113462e-34 -5.99108432e-35 -1.19041934e-34 -2.55139625e-34
   4.04359174e-34  1.14663849e-34  3.77368814e-34  9.40102181e-35
   3.18247825e-03  2.51288917e-34 -1.92961347e-34 -2.79944255e-34
  -3.37972529e-02  3.44370641e-02 -9.81192454e-04  3.93361001e-34
  -1.65974293e-02 -1.75374229e-34 -1.00382127e-01  2.97903054e-34
  -3.20435076e-34 -2.24077049e-34 -2.68693052e-34 -2.72895077e-34
   1.11276554e-34 -7.30249520e-35 -4.91971845e-34  3.18533714e-34
  -2.05280229e-34  5.08147382e-35  2.76515026e-34 -2.64963774e-35
   4.39220250e-34  5.04779361e-34 -1.61736812e-02 -1.40998458e-34]
 [-3.99860750e-34 -2.57420475e-34 -4.85731531e-34 -3.18477809e-34
  -3.99050118e-34 -4.47521605e-35  6.37276284e-03  4.45742346e-02
   5.27849374e-03  3.64017700e-34 -5.17663697e-34 -3.29806384e-34
   3.32556053e-34  1.87212937e-02 -4.59775330e-34  1.32975916e-34
  -8.34880397e-03 -1.71174374e-34  2.44112891e-34 -3.25170505e-34
   1.72570050e-02 -4.16682097e-35  5.67213723e-34 -5.70944953e-34
   7.69926013e-35 -6.08643610e-03  3.26582715e-02 -5.62345004e-03
  -2.81099064e-34  2.60661740e-34  3.08526121e-02  4.09469406e-34
   1.15887798e-34  9.69260782e-02  1.54647911e-02  4.61040548e-34
  -1.45363376e-34 -1.23665323e-34 -1.14778609e-34 -7.63131736e-35
   8.23367556e-35 -2.45542701e-34 -5.68079318e-34  9.13913510e-35
  -1.00984134e-01 -1.38447317e-03  2.69503592e-34  3.95718005e-34
   1.46793106e-34  8.29941477e-04  1.01041503e-03  2.15499798e-35
  -2.08882683e-34  1.98342792e-34 -1.82188802e-34 -2.24775572e-20
   7.46690761e-03 -5.76265488e-34  1.09370807e-34 -8.00213404e-03
   3.96735680e-34 -1.58238897e-34  1.17736251e-34 -5.02494769e-34
  -2.20879005e-35  1.53738050e-34  2.60568733e-34  1.11220451e-02
  -2.41621234e-34  7.09447460e-35  2.64614690e-02 -5.67131897e-34
  -1.48027958e-02  1.23314339e-34 -2.22095538e-35  5.02766418e-34
   1.95661310e-34 -1.21951271e-34  5.41103123e-35 -3.42944071e-34
  -3.27004988e-34  2.61357922e-34  1.45299587e-19  4.13699150e-02
   1.38419482e-03  1.31308436e-34 -2.53114239e-34  1.75279352e-35
   2.09251793e-34  4.75106669e-34  4.01308583e-34 -6.30741226e-35
  -3.74365879e-35  3.61577930e-34 -6.11501919e-35 -2.71499545e-34
   1.05837712e-34  6.69268110e-36  4.30722597e-35 -1.66733829e-34
  -1.50041026e-03  1.98374820e-34 -2.59051335e-34 -5.11541667e-34
  -2.36119758e-02  9.21467915e-02 -1.23659126e-03  2.12820864e-34
  -2.25893501e-02 -2.47754582e-34 -6.95716515e-02  3.24786426e-34
  -3.51997237e-34 -9.59579686e-35  2.46170856e-34 -1.57322413e-34
  -2.82719639e-34 -2.63861059e-34  2.55723802e-35  3.77826889e-34
   1.84521251e-34  3.09786521e-34  3.32879865e-34  4.90598032e-34
   3.91663835e-34  5.29715912e-34 -6.75796811e-03 -9.78545323e-35]
 [ 2.60821396e-34 -9.05855117e-35  3.33841452e-34  4.14666193e-34
  -2.32402144e-34  1.66643899e-34 -3.88918398e-03  7.45478040e-03
   8.40124581e-03  2.41537916e-35 -2.86911332e-34 -5.29505517e-34
   4.29871488e-34 -6.29318645e-03  2.10691153e-34  4.40980920e-34
  -3.59753892e-02 -1.77246479e-34 -2.17985578e-34  1.15833822e-34
   3.47470827e-02  1.16305076e-34  3.00688218e-34  4.98484313e-34
   1.21662758e-34 -5.45633864e-03  2.70794202e-02 -4.29964857e-03
   2.21553134e-34 -4.34102625e-34  6.04385734e-02 -2.33787344e-34
  -4.97970218e-34  8.72861128e-03  1.76710580e-02 -2.07211300e-34
  -6.92533084e-35 -5.56457261e-34  8.62977928e-35 -6.67643254e-35
   2.19762159e-34  4.65918551e-35 -3.00439252e-34 -2.31769994e-34
  -8.96831416e-03 -3.02739046e-03 -3.90622926e-34 -1.66527532e-34
   6.71697102e-35 -1.12804212e-03  1.45055621e-03 -2.04534823e-34
   1.90050368e-34  3.87412540e-34  5.12107512e-34 -3.99278272e-20
   4.72108414e-03 -2.60342864e-34  1.91198518e-34 -6.08199555e-03
  -5.04750938e-34  4.65590675e-34  5.29068380e-34  5.94071771e-35
  -1.30712710e-34 -1.33365666e-34 -2.04423702e-34  7.34017638e-04
   2.67808654e-34  2.71427753e-34  3.76975201e-02  4.40077488e-34
  -2.92884819e-02 -4.28405702e-34 -4.22466149e-34  1.36560324e-34
  -2.55114440e-34 -5.07458156e-34  1.45964853e-34  1.92768240e-34
  -1.61393687e-34 -6.89380830e-35  1.11574270e-19  4.91079390e-02
   1.39342146e-02  1.59594859e-34  7.30644585e-35 -2.55978646e-35
   3.16193838e-34 -8.22718853e-35 -1.51109581e-34  5.65729753e-34
  -2.91548221e-34  2.96438002e-34  2.26733965e-34 -3.10072267e-34
   4.02497014e-35 -3.77667141e-34 -1.80974610e-34  1.66496905e-34
  -1.08323491e-03  3.26544433e-34 -8.26826885e-35 -6.89849593e-35
  -4.96703871e-02 -1.69515591e-02 -1.38007570e-03  4.10054123e-34
   6.69836849e-02 -2.96731554e-34  1.70131549e-02 -3.46789889e-35
   4.30820608e-34  1.42460043e-34 -8.58489411e-36 -3.67506462e-34
  -2.43365833e-34 -5.14094740e-34  4.66970228e-34  4.31644051e-34
  -3.31234219e-34 -4.60851780e-34  4.99434397e-34  7.39999408e-35
   3.85628957e-34  5.47047612e-34  7.74507353e-04 -2.65601296e-34]
 [-1.03831577e-34 -4.91298874e-34  2.12676430e-34  2.29247480e-34
  -1.35399455e-34 -2.88666584e-34 -1.79206636e-02 -2.72193979e-02
   6.41484093e-03  3.05610577e-34 -5.65453650e-34  1.20074728e-34
   1.45010912e-34 -3.06372344e-02  5.72137804e-34 -2.62170436e-34
  -5.36960810e-02  4.32719674e-34  2.45945124e-34  4.32980120e-34
   4.70225438e-02  4.43298527e-34 -2.33111320e-35  6.20981523e-35
   2.66212530e-34 -2.89391424e-03  2.28177290e-02 -3.08106863e-03
   4.94545810e-34  2.60363182e-34  4.98867333e-02 -5.02057540e-34
  -1.79240320e-34 -7.51593783e-02  1.34843616e-02 -3.05586195e-34
  -4.23421193e-34 -1.71744890e-34 -4.39506547e-35  1.67414215e-34
  -4.13157382e-34  2.17686998e-34  4.87078161e-34  1.13793570e-34
   5.36449328e-02 -2.69214902e-03 -8.89126765e-35 -1.95037701e-34
  -1.61712689e-34  1.13485241e-02 -1.07671544e-02 -5.20534153e-34
  -1.36006315e-34 -3.23060401e-34  2.15026110e-34  1.24113693e-20
   2.88742017e-02  2.81428110e-34  8.59239649e-35 -1.41075598e-02
  -4.77165529e-34  4.58704666e-34  1.30574900e-34  2.19498407e-34
   4.13935275e-34 -1.93164051e-34 -8.90584367e-35  9.72696021e-03
   4.60461708e-34  2.64383373e-34  6.51538298e-02 -5.06228754e-34
  -1.07181631e-02 -3.02771873e-34  2.72881830e-34  3.85436975e-34
  -2.19638869e-34  2.36721971e-34 -2.33145575e-34  2.55803321e-34
   3.07215885e-34 -8.01102040e-35  8.70077359e-20  5.37228361e-02
   9.60177276e-03 -5.85145338e-34  1.27178341e-34  2.74081041e-34
  -2.40784498e-34  1.70601883e-35  5.62164378e-34  9.44851626e-35
  -8.41703776e-35 -5.86215245e-35  3.19495662e-35 -4.04946279e-34
  -1.54294183e-34 -2.25717576e-34 -1.03177490e-34 -1.92006521e-34
   6.33875723e-04 -5.08069872e-34  1.71123922e-34  1.29535861e-34
  -6.56196252e-02 -1.13476679e-01 -7.72070140e-04  2.78108004e-34
   8.21126401e-02  1.55982992e-34  3.42461914e-02 -1.29808613e-34
   1.95336258e-34  4.08171128e-35  1.01088209e-34  4.46102218e-34
  -2.92459367e-34 -1.03044765e-35  5.49171078e-34  3.54011879e-34
  -6.30212942e-35 -1.71086040e-34 -5.05032230e-34  2.60383524e-34
   2.05591115e-34 -2.50240454e-34 -1.12123284e-02  4.57326536e-35]
 [-1.23988917e-34  8.35220190e-35 -6.84800994e-35 -2.02178508e-34
   2.49334130e-34  3.86791044e-34 -2.14064196e-02 -2.75614411e-02
   1.40008837e-04  5.62020609e-34  4.58704528e-34  3.57041945e-34
   5.52867319e-34 -3.94942947e-02 -2.17944045e-34 -3.86716244e-34
  -2.19841767e-02 -4.76848513e-34  6.86052941e-35  4.56709034e-34
   1.77445691e-02  3.14437484e-34 -3.51372251e-34  4.59306372e-34
   4.62050325e-35 -2.32898397e-04 -5.51000098e-03 -1.04777876e-03
  -4.96702016e-34  1.96113577e-34 -1.59011334e-02  2.79789903e-34
   1.21406457e-34 -6.62704259e-02 -3.81072648e-02  1.83547014e-34
  -9.98347352e-35 -3.55228424e-35 -2.07500490e-34 -2.70643753e-34
   3.99648197e-34  2.70080113e-34  3.53900918e-34  2.89215003e-34
   4.38012555e-02 -1.27132400e-03 -5.22671303e-34  4.32781939e-34
  -1.44462413e-34  1.05785881e-03 -6.83813868e-03 -2.32519900e-34
   5.50113035e-34  1.94279278e-34  2.41089575e-34  2.13212362e-20
   5.95218055e-02  6.61371119e-35  2.50826411e-34  3.83849558e-03
   4.28754539e-34 -2.55853692e-34 -4.90411192e-34  4.18442836e-34
  -2.57115168e-34  5.81104760e-34  2.24119110e-34  1.58856474e-02
   2.64527670e-34 -3.81566270e-34  4.37695347e-02  2.64615947e-34
  -5.19734900e-03  2.73967234e-34 -4.62357974e-34 -5.51641499e-34
  -4.34731882e-34 -5.71728999e-35 -2.91589386e-34  5.25585473e-34
   4.11484736e-34  4.53264681e-35 -5.93625480e-21  1.90222990e-02
  -2.08300631e-03  4.98775856e-35  1.93606996e-34  5.28642998e-36
  -5.88583739e-37 -4.33441410e-34 -6.83668662e-35 -2.74504357e-34
   1.17659684e-34 -3.82209440e-34  3.58739524e-34  2.86586992e-34
  -4.64715712e-34  4.72609111e-34  2.17041991e-34 -3.47354953e-34
   1.26601546e-03  2.64553292e-34  2.08934019e-34  3.15814901e-34
  -1.68453678e-02 -5.27252704e-02  1.70439063e-03  1.42114879e-34
  -1.20418528e-02  2.64507282e-34  4.67913598e-02 -4.99487294e-34
  -4.55270661e-34 -1.89023027e-34 -4.22556056e-34  7.98473249e-35
   3.79574128e-35 -3.31854200e-34 -3.35692626e-34 -2.45123082e-34
  -1.00086456e-34 -4.56712800e-34  1.68867598e-35  1.31993276e-34
  -5.63658725e-34  3.11322194e-34 -1.42702730e-02 -9.33119584e-35]
 [-1.23013418e-35  9.66572959e-35  5.48934567e-35  7.23920505e-35
  -6.51392962e-35  2.05319328e-34 -1.99487060e-02 -1.97303668e-02
  -1.70296128e-03 -3.02003601e-34  3.37269763e-34  4.93285873e-34
   3.69413174e-34 -1.89262312e-02 -4.88347189e-34  2.97802678e-34
  -2.95065008e-02  2.79628295e-34  5.23324024e-34  1.15767528e-34
  -5.93081256e-03  3.97874302e-34 -4.67746605e-34  3.74214747e-34
  -1.09495198e-34 -2.90351803e-03 -1.81872547e-02 -7.49402680e-05
   3.46322768e-34  8.59964346e-35 -2.85142139e-02 -3.41117050e-34
   2.57826824e-34 -8.27146228e-03 -4.86041307e-02 -6.49625244e-35
   2.66239736e-34  5.69642955e-35 -4.37263832e-34 -1.81355372e-34
   1.30215869e-34  3.77987923e-34  2.51028839e-34  3.24572518e-34
  -1.54594155e-02  8.26509146e-04 -4.86499321e-34 -3.70609882e-34
  -5.00621600e-34  8.55184160e-04 -8.08132719e-03 -4.84159307e-34
  -2.87964364e-34 -4.15556424e-35  1.92224091e-34  8.65586027e-21
   8.59871805e-02 -6.73829293e-35  3.29838893e-35 -5.85934892e-03
  -2.60262072e-34  3.62829648e-34  2.79441134e-34  3.88965846e-34
   1.09905795e-34  4.39387735e-35 -3.75841750e-34  1.92031860e-02
   5.66923568e-34 -1.90076151e-34  3.53981145e-02  2.82500290e-34
   3.00157312e-02 -4.50780961e-34 -3.33597215e-34 -1.31528829e-34
  -2.57553751e-34 -5.06670024e-34  2.42408195e-34 -1.38992048e-34
  -2.99350037e-34 -3.19815646e-34 -2.65859363e-21  7.93513563e-03
  -6.06247317e-03 -4.21109923e-34 -2.13683292e-34  1.83421544e-35
   1.34529485e-34 -9.48460646e-35 -4.56656780e-34 -3.14986706e-34
   2.82737960e-36  3.52685154e-34 -1.75871381e-34  1.21032423e-34
   4.59461023e-36  1.57876169e-34 -3.95314709e-34 -2.47457999e-34
   2.26463936e-03  3.71430616e-34  1.41365284e-34 -3.62939299e-34
  -2.55392697e-02 -2.18455195e-02  2.90355994e-03  4.88059423e-34
  -4.22515757e-02  4.02307018e-34  4.89504896e-02 -1.52656837e-34
  -4.35788874e-35 -4.27889219e-34  2.89130078e-34  4.29078672e-34
   4.60531228e-34 -1.40901950e-34  4.14258168e-34 -5.35158543e-34
  -1.31848084e-34  3.21371867e-34 -9.92481360e-35  4.31271796e-34
   3.27414207e-35 -5.10859054e-34 -1.84727572e-02  1.30260202e-34]
 [-3.10945829e-34 -4.44240897e-34  1.36929583e-34  8.09157965e-36
  -4.10518351e-34  3.45937335e-34 -2.06709933e-02 -2.48396490e-02
  -3.92589346e-03  2.29355524e-34 -2.98321135e-34 -4.97529775e-34
   5.18783126e-34 -1.35727851e-02  3.04230519e-34 -6.91841964e-35
  -2.98498813e-02 -1.35256352e-34 -3.32184969e-34 -2.49243626e-34
   2.09544925e-03  1.22741607e-34 -1.46476928e-34  3.52277152e-34
  -6.74973678e-35 -6.61420729e-03 -1.55339511e-02  3.73010384e-03
  -4.43701501e-34 -4.18619803e-34  1.48543599e-03  3.32626284e-34
   2.32627669e-34 -6.78360835e-03 -4.06882539e-02 -3.76986089e-35
  -7.49862540e-35  5.17403481e-34  5.09073221e-34 -3.47656771e-34
   5.00715778e-34 -6.77436017e-35 -2.49820146e-34 -9.50765660e-35
  -2.86801104e-02  4.97641368e-03 -4.03621643e-34 -5.01856512e-34
  -2.97648164e-34 -2.28626048e-03 -6.51461352e-03 -2.23587061e-35
  -5.71639046e-34 -2.21506155e-35  2.92324874e-34  2.03868840e-20
   7.48078972e-02  5.02362847e-34 -3.12878255e-34 -1.03177186e-02
  -1.77008809e-34  5.69587762e-34  5.46941450e-34  4.83944320e-34
   5.94440835e-35 -3.25077843e-34 -1.12596425e-34  2.03521419e-02
   2.74424666e-34 -6.95373441e-35  2.21656710e-02  4.45209577e-34
   2.65391301e-02  5.71941047e-34 -4.67084930e-34 -2.49570262e-34
   4.23274485e-34  3.35566627e-34  4.32966253e-34  3.22101891e-34
   1.78892298e-34 -5.53435460e-34  1.15487653e-20  1.97323430e-02
  -1.05312187e-02  3.82891846e-34  4.95254826e-34  1.04464691e-34
   3.00412642e-34  4.08673698e-36 -7.97839470e-35  4.70405105e-34
  -2.63927318e-34 -3.39839549e-34 -5.87399578e-34 -4.79039231e-35
   1.99172755e-34 -1.15784678e-34 -5.14350686e-34 -3.71884398e-35
   6.76131016e-03  3.96002236e-34 -4.56787508e-34 -4.14335126e-35
  -2.82457508e-02 -1.14737246e-02  5.52432798e-03 -5.31794149e-34
  -3.70670520e-02  5.33276420e-34  1.41411377e-02 -1.15050729e-34
  -2.52062333e-34 -1.29965410e-34  5.49115931e-34 -1.05499172e-34
  -3.18994545e-34 -4.69426230e-34 -3.47060299e-34 -6.86471424e-35
  -5.80062427e-34 -2.84973259e-34  4.39902680e-34 -5.40215694e-34
  -2.39897022e-34 -2.52564053e-34 -2.09610499e-02 -4.13313227e-34]
 [-2.35479391e-34  1.32381970e-34  2.77388726e-34 -3.56277920e-34
   4.22020104e-34 -3.02089559e-34 -8.25716369e-03 -2.62761395e-02
  -2.74486816e-03  6.18079981e-35 -9.89074607e-35 -6.58032095e-35
   4.49433918e-34 -4.77273483e-03  9.19286174e-35 -4.77662313e-34
  -2.52353679e-02 -5.50988067e-35 -8.29752534e-35  3.10993790e-34
   5.78286871e-03 -4.27072893e-34 -9.37463518e-35  9.70097835e-35
  -5.45465470e-34 -6.63373736e-04 -1.76891789e-03  4.16748412e-03
   1.08880463e-34 -3.23599360e-34  2.79272273e-02  1.83086528e-34
   1.47140669e-34 -5.83831454e-04 -2.85092369e-02 -4.71284935e-34
   1.94542478e-35 -3.38057298e-34  1.85448641e-34  1.67180861e-34
   5.87366701e-34  2.78101737e-34 -1.23367937e-34  4.67480328e-34
  -3.49283367e-02  3.09550436e-03 -2.00966601e-34  3.99817404e-34
  -2.48213255e-34 -1.21149118e-03 -1.84004195e-03 -4.29568523e-34
  -3.58141078e-34  3.04092743e-34 -1.11896845e-35 -1.79558164e-20
   5.47373891e-02 -4.22321692e-34 -5.17143954e-34 -1.02592735e-02
   3.82335507e-35 -1.78993856e-34  3.92783861e-34 -3.94523363e-34
  -2.93997520e-34  5.59181056e-34 -4.78076583e-34  9.04474035e-03
   1.98470696e-34 -1.01813251e-34  2.75560264e-02  2.21130921e-35
   2.16793027e-02 -3.19511441e-34 -1.54195184e-34  1.50011951e-34
  -4.78016890e-34  2.98039682e-34 -1.76776787e-35  3.75193805e-35
   3.27962534e-34  2.78912300e-34  6.10284354e-22  2.45089810e-02
   5.33216633e-03  3.68337527e-34 -2.31453185e-34  1.04285175e-34
   3.81054402e-34  3.88685289e-34 -3.80536564e-34  3.26996585e-34
  -3.48461066e-34  1.14434019e-34  1.14850918e-34 -4.54670332e-34
  -1.77936738e-34 -5.39620600e-34  2.94449373e-34  5.14577382e-34
   4.42231679e-03  7.76794447e-35 -4.03619393e-34 -1.00520058e-34
  -3.12096998e-02 -7.84325413e-03  2.07225489e-03 -2.48551806e-34
  -4.18080166e-02 -3.13553659e-34 -1.42368097e-02  3.71308452e-34
  -4.08672664e-35  2.10034461e-34  3.17143325e-35 -4.48246577e-34
  -5.67273462e-34  5.28539683e-34 -3.12763208e-34  4.95352803e-35
   5.67215605e-34  6.82078301e-35  5.39115367e-34  3.56172309e-34
  -1.17312913e-34  2.12202008e-34 -2.22537871e-02  1.27035043e-34]
 [-6.57296493e-35 -3.17019577e-34  1.18312806e-34 -2.42374560e-34
  -1.60962301e-34  2.91988595e-34 -9.89749376e-03 -1.84720140e-02
  -5.35163004e-03 -4.98874797e-34 -5.14017139e-34 -1.94019705e-35
  -2.69452325e-34 -2.33915867e-03 -5.81370394e-34 -3.30135683e-34
  -2.85536330e-02  2.95199118e-34  9.18322819e-35  1.52659752e-35
   7.50697311e-03 -1.19412663e-34 -2.81720813e-34 -2.69650828e-34
   5.23825124e-34  5.45511371e-04 -1.00926151e-02  6.31763600e-03
   4.17278821e-34  9.70658032e-35  1.89355351e-02  7.93108908e-35
   4.53466645e-34  3.25170672e-03 -1.80582702e-02  4.03087115e-35
  -4.32941870e-34 -9.61266475e-35  1.01344396e-34 -5.16214533e-34
  -1.65770188e-34 -5.48747441e-34  3.92414269e-34 -3.91648315e-34
  -3.46255675e-02  4.17124294e-03 -3.94304198e-34 -2.04614479e-35
   1.96356482e-34  1.05828920e-03  7.08417152e-04 -3.77405777e-34
   6.70141064e-35 -2.94721528e-34  2.17024290e-34 -4.20745822e-21
   4.34202738e-02 -1.75164431e-34 -2.48832386e-34 -1.23307006e-02
  -7.67474292e-35  4.54609491e-34 -3.72065360e-34 -2.39905173e-34
   1.43133266e-34 -2.63844299e-34 -3.74398027e-34  1.24541037e-02
  -4.35741889e-34  5.22135856e-34  3.56447287e-02 -5.12829155e-35
   2.36969981e-02  2.40609046e-34  1.76199050e-34 -4.03195825e-35
  -5.74491135e-34  2.66942461e-34  4.43424881e-35 -2.34621647e-34
   2.83152322e-34  4.55645396e-34  1.12268139e-21  1.65950302e-02
   5.08159073e-03 -3.45342906e-34 -2.98019065e-34  4.99742735e-34
  -8.21597886e-35  4.16494408e-34 -5.55898074e-34  7.49233008e-36
   2.83209621e-35 -1.56373281e-34 -2.82221041e-34 -4.96247246e-34
   7.84760717e-35 -2.39339558e-34  2.04286546e-34  1.07054681e-34
   6.06471626e-03  2.96892427e-34  1.00477102e-35 -3.31158845e-34
  -3.31487842e-02 -5.07076178e-03  3.05837323e-03 -4.14742463e-34
  -2.47406997e-02  2.22970018e-34 -1.70883269e-03 -4.15395826e-35
  -1.66453375e-34  2.70891296e-34  5.35239220e-34 -1.57496981e-34
  -5.29041059e-34 -4.78067124e-34  3.17834112e-34  4.74769587e-34
  -1.18089520e-34  1.54474869e-34  2.17651779e-34  2.08316494e-34
   1.27859852e-34 -4.83443174e-34 -2.90085338e-02  5.65480557e-34]
 [-5.04311459e-34  1.25260035e-34  1.39128332e-34 -8.97210757e-35
  -4.16601397e-34  4.89693039e-34 -5.02776493e-05 -7.90526997e-03
  -2.75730691e-03 -2.20546342e-34  3.60857044e-34  1.57966512e-34
  -6.50837473e-35 -2.16467259e-03  2.28109776e-34 -1.50925301e-34
  -4.67297435e-03 -1.70772318e-34 -5.57876395e-34 -3.88772303e-34
   3.50433798e-03 -5.51506317e-34  3.45789342e-34 -2.50576962e-34
  -2.75242898e-34  3.88291839e-04  1.72255197e-04  1.49957486e-03
  -9.47076972e-35 -3.14488085e-34  4.31973161e-03  1.45383970e-34
   5.75157906e-34  6.06600288e-03 -3.50606977e-03  3.87160452e-34
   2.45678136e-34 -1.92188229e-34 -2.08011118e-34  4.15768403e-34
   1.42162266e-34  1.83272748e-34 -4.25629561e-34 -4.15351011e-34
  -7.94924516e-03  2.44933181e-03 -5.35421238e-34 -1.62501338e-34
   7.98442370e-35  1.97451888e-03 -2.22777622e-03  2.13448331e-34
  -3.84672261e-34  3.72225653e-35  5.34021252e-34 -9.28781555e-22
   9.39045660e-03 -2.25901316e-34 -3.90482693e-34  2.70040007e-04
   4.14829798e-34 -4.09361040e-34 -2.82741748e-34  6.99394458e-35
  -4.28064303e-34  3.92043988e-34 -1.88741506e-34  4.98860702e-03
   3.91163194e-35  4.04568284e-34  5.36777172e-03 -8.40902282e-35
  -3.17013217e-03 -4.23776447e-35  4.86156086e-34  1.33399094e-34
   7.66065077e-35  3.77957709e-34 -5.45352237e-34  1.86984027e-34
   4.94954524e-34 -4.29830162e-34 -5.38834660e-23 -2.80672288e-03
   9.19653627e-04  5.18005096e-34  1.87104572e-34 -4.50416742e-34
   1.09103267e-35  3.10591459e-34 -1.96732204e-34 -5.53061919e-34
   7.60143179e-35 -4.62675495e-35  9.23039835e-35  1.88393202e-35
   3.15705939e-34  1.58729780e-34 -4.10872423e-34  5.18656117e-34
   2.79413001e-03  3.54651077e-34 -3.68036720e-34 -3.18977923e-34
  -3.88621306e-03 -5.30193932e-03  2.27933959e-03  3.97072579e-34
  -4.69052279e-03  1.10992381e-35 -1.64367157e-04  3.05277260e-35
   5.41631407e-36 -3.44650214e-34  1.05199558e-34  2.32385085e-34
   4.55489459e-34  2.73777823e-34 -1.36722620e-34 -4.58765920e-34
   1.80895632e-34 -6.44898127e-35  1.42009510e-34 -4.09110192e-34
  -4.72510066e-34  3.41025697e-34 -5.88468788e-03  2.23364383e-34]
 [-4.13663763e-34 -2.27249690e-35  1.50454323e-34  1.43207079e-34
  -5.52932339e-36 -1.11945748e-34 -4.96651883e-05 -1.21881778e-03
  -4.63475910e-04  6.48101463e-35  9.75808626e-35 -2.32970399e-34
  -2.47444959e-34 -9.51977039e-04 -2.56663084e-34  2.39148104e-34
   9.15776298e-04  5.12855650e-34  1.88455254e-34 -1.06549104e-34
   9.61233673e-06 -3.58325828e-34 -5.19093805e-34 -7.28712825e-35
   2.00891238e-35  8.54854747e-08 -8.32275196e-04  5.80519903e-04
   2.69231828e-35  4.19770410e-34 -3.33937351e-04 -2.06497853e-34
  -4.12134564e-34  2.82314396e-03  3.04443820e-04  3.18123875e-34
   3.36952701e-35  7.46637277e-35 -9.86946664e-35  3.97939689e-34
   2.21947017e-34  3.35140419e-34 -7.10927274e-35 -4.33248647e-35
  -5.78141953e-05  7.33956869e-04 -3.02239618e-34 -3.15869567e-35
  -2.53724854e-34 -1.84348872e-04 -8.98680373e-05  3.24469685e-34
   5.12052502e-34 -2.59373196e-34  2.98195550e-34  3.33908781e-21
   1.99241354e-03  2.87052828e-34  3.48886930e-34 -9.07816226e-04
  -1.60712348e-34 -4.44983341e-34 -2.57749200e-34 -4.62902466e-34
  -1.68083019e-34 -2.23418222e-34  3.59620778e-34  6.12904725e-04
  -3.47058646e-34  4.29203752e-34  5.11136968e-05  1.67603821e-34
   4.38540243e-04  4.97855148e-34 -5.49861543e-34  3.56944829e-35
   4.18422587e-34  3.04700809e-34 -3.38958893e-34  1.59714670e-34
  -3.43295319e-34 -3.21569061e-34 -7.96138368e-23 -4.11438942e-03
  -4.93662839e-04  1.99308281e-36 -1.64300384e-34 -2.16630201e-34
   1.04902815e-34  3.96311997e-34  3.50956695e-35 -4.10537269e-34
  -1.38002463e-34 -3.81599905e-34 -9.50596108e-35  3.46988943e-34
  -5.06727788e-34 -3.00845509e-34  3.18884618e-34 -4.04944809e-34
   5.72087301e-04 -2.02777367e-34  4.28178868e-34  4.22548434e-34
   1.50788878e-03 -2.20443658e-03  5.94576821e-04  3.47327012e-34
  -2.28355220e-03  5.53572983e-34  1.73189805e-03  1.23485498e-34
   2.66083065e-34  5.87249978e-34 -3.68993164e-34 -1.76271301e-34
   3.95893640e-34 -2.62665682e-34  3.29411399e-34  5.53614447e-34
   4.51293863e-34  3.55314611e-34  3.21522133e-34 -3.29563295e-34
  -2.95211815e-34 -4.29933271e-35 -1.18544798e-04 -4.00758442e-34]
 [ 4.09767412e-34  4.73323821e-34  2.20393436e-34  3.87743791e-34
  -1.90612263e-35 -4.77361460e-34  1.15698358e-05 -3.94766030e-05
   8.39761378e-06 -3.33202690e-34 -3.26101878e-35  3.11857457e-34
   3.19552078e-34 -7.23885241e-05  2.87030443e-34  1.01442527e-33
   1.83281035e-03  1.97572866e-34  3.00426785e-34 -4.74497478e-35
  -1.04055321e-03 -3.83607429e-34 -4.31889298e-34 -2.03587356e-35
   1.81805354e-34  4.33510472e-09 -1.98444584e-03 -1.13160490e-06
  -1.23435539e-34  3.28865299e-34 -1.83127355e-04  4.29907304e-34
  -4.33125633e-34  7.73915206e-04 -4.79958486e-04  1.58306028e-35
   5.12326723e-34  4.54836463e-34  7.85806035e-35  5.15632526e-34
   4.53608576e-34  2.64472545e-34 -3.07535587e-34 -3.39127778e-34
   1.26506039e-03  7.21994729e-06  5.79975321e-34  3.78901709e-34
   4.17297005e-34 -8.89973890e-05  7.47587983e-05  2.08662278e-34
  -1.60067249e-34  2.03095669e-34  4.40189574e-34  1.35781049e-22
   1.07923130e-04 -3.38087374e-34  2.97546663e-34 -3.21218232e-03
  -4.28166470e-34 -2.61342103e-34 -2.96955197e-34  1.02958956e-35
  -3.10555781e-34 -2.62858583e-34 -1.32689194e-34 -7.30634958e-04
  -3.45178039e-34  9.67311317e-35 -2.46616105e-06 -4.53085481e-34
   3.61867971e-03  3.03551465e-34  2.11948749e-34 -3.14987027e-35
  -2.28915954e-34  1.99781464e-34  4.97945284e-34  2.59006152e-34
   3.33138818e-34 -1.16564821e-34  1.25183647e-25 -6.89761247e-03
  -6.52220217e-04  3.23325576e-34  9.59047729e-35  5.25996988e-35
   5.35600685e-34 -4.93828758e-34 -1.20287901e-34 -5.82614857e-34
   2.76982744e-34  4.33534117e-34  2.40759610e-34  5.38334260e-34
  -4.80608671e-35  1.71069808e-34  1.73303683e-34 -1.14566434e-34
   5.35836671e-06 -1.57175074e-34  1.86041817e-34  3.36417208e-34
   1.68772601e-03  1.12582592e-03  1.43068496e-06  3.13871433e-34
  -5.77851385e-03 -1.63480224e-34  2.66466034e-03 -4.85798020e-34
  -2.80220221e-34  2.16648017e-34  6.21037658e-35 -1.56841619e-34
  -2.11035307e-34  1.32409888e-34  4.18221605e-34 -9.07534846e-35
   4.00436559e-34  2.47591253e-35  5.52282052e-34 -1.13191290e-34
  -4.64972898e-34  7.12512585e-35 -4.81752568e-06  2.23597393e-34]
 [ 9.85596912e-35  4.92545357e-34 -5.79665101e-34 -5.16631971e-34
  -3.93238768e-34  4.16990366e-34 -4.56724877e-07 -4.58220718e-03
   4.19334945e-04  5.67619406e-34  4.95101047e-34 -2.70668686e-34
  -4.40909564e-34 -1.42985766e-04  4.65671352e-34  5.10249772e-33
   2.54892418e-03 -4.58648508e-34  4.48227016e-34  5.59948938e-34
   4.67400270e-04 -1.81456609e-35  5.63819391e-34 -3.05099651e-34
  -2.97152666e-34 -1.99310522e-21 -2.75656860e-03  2.59274180e-04
   4.44028848e-34 -2.60763585e-34  1.89616884e-07 -2.41360031e-34
  -4.01903814e-34  5.79187600e-03  6.21307874e-04  4.87305224e-34
  -8.54621127e-37 -3.66276808e-34  5.13727766e-35  2.97782818e-34
   1.96131232e-35 -3.75214123e-34 -1.34436146e-34  4.68050994e-34
  -1.58557820e-03  1.46957405e-04  4.08050823e-35  3.76103711e-34
  -1.10099740e-34 -5.62573600e-19 -4.61146738e-05 -2.69981321e-35
   3.11473287e-34  4.84961858e-34 -3.87260828e-34 -2.77707513e-22
   3.83653585e-03  1.83275089e-34 -2.83705745e-34 -1.75184140e-03
   1.61265335e-34  9.68818108e-35  1.11631739e-34 -4.75019793e-34
  -3.65734863e-35  5.70095750e-34  1.56710983e-34  3.56071134e-04
  -2.42495668e-34 -5.11055720e-34  1.45275791e-07 -4.55752568e-34
   5.72298886e-03  2.42873020e-34  4.47689595e-34  2.13956502e-34
   3.06870882e-34  5.84383058e-34  4.57482932e-34 -3.43832098e-35
   5.27150488e-34 -5.09815941e-34  2.25064790e-27 -1.45151364e-02
   4.29106734e-07  4.30692544e-34 -2.36386587e-34 -2.21950966e-34
  -3.78594358e-35 -2.46471411e-34 -1.65150341e-05 -7.06900058e-35
  -3.29350604e-34  4.83330951e-34 -2.06916393e-34 -3.85600167e-34
  -3.55822691e-34  1.04296310e-34  2.28759466e-34 -3.34165493e-35
   2.04127355e-04  3.71881367e-34 -1.45487745e-35  1.38633396e-34
   1.59721705e-03 -1.62799042e-05  8.23816517e-05 -3.70113924e-34
  -1.08645568e-02 -3.53976614e-34 -1.73222608e-04 -1.64951245e-34
  -2.22627151e-34 -3.82513943e-34  3.02287189e-34 -1.05732778e-34
   2.26438048e-34  4.92044946e-34 -5.58116636e-34  2.99548287e-34
   1.04844729e-34 -2.64035868e-34  4.47921755e-34  4.79497921e-34
  -3.02625097e-34  3.97147103e-34 -2.51983147e-04  2.97173788e-34]
 [ 9.24511613e-35 -2.46409718e-13  1.79722709e-34 -3.44346376e-35
  -3.54520372e-35  2.84552285e-37 -3.09716530e-10  1.37753930e-04
  -4.63052915e-19  7.79356831e-13  5.52567063e-34  4.03159298e-34
   1.62429809e-34 -1.60214864e-03  5.79379492e-34  1.57491925e-33
  -6.88918817e-07  5.69591298e-36  4.57362077e-34 -3.65303053e-34
  -9.58585937e-04 -2.37577602e-34  2.96988694e-34 -4.69251467e-34
   4.58438572e-34 -2.12099589e-34  1.41597266e-04  3.06449365e-05
   1.75503511e-34 -1.11682455e-10 -6.89736160e-04 -5.46512762e-34
   4.91536177e-34 -8.06814642e-04 -5.42415331e-23 -2.41658496e-34
  -4.94846847e-34  3.50664429e-34  3.74611545e-34  2.54027543e-34
  -7.09454922e-35  1.74326547e-34  5.13562278e-34 -1.19249295e-16
  -7.05035709e-05 -2.64678862e-10  7.65418736e-06  3.04969703e-34
  -5.50115285e-34  1.91675404e-32 -1.41210439e-05 -1.36654157e-34
  -5.22509718e-34 -5.19606615e-35  4.15542763e-34 -2.68225476e-33
  -1.88302256e-05 -1.60582515e-34  5.43977643e-34 -4.11026558e-05
  -3.77999541e-11 -2.82638112e-34 -1.32047046e-35 -9.62264612e-35
  -3.50848330e-34 -2.66345209e-35 -1.13148517e-34 -4.80735653e-05
   4.41420169e-35  9.09157063e-35 -1.18721559e-22  2.52274590e-10
  -3.13447090e-05  3.91758655e-34 -1.47974902e-34  2.26514731e-34
   3.12954800e-34 -4.61673937e-34 -1.21951570e-35 -5.28974478e-34
   1.48637381e-34  2.00871413e-34 -4.80240136e-34 -8.37564474e-15
  -4.79699059e-24 -4.21019511e-34 -5.49334408e-34  2.18774192e-34
  -5.01215087e-34  3.52505960e-34 -2.71759141e-34  1.86773425e-34
  -2.66524977e-35  3.16563567e-34  7.05517016e-35 -6.97110165e-35
   2.65546350e-05  2.10401504e-34 -5.05727057e-35  2.19464673e-05
   7.15815851e-10 -6.33811860e-36 -5.60521992e-34 -5.33803740e-34
  -2.74317972e-05  9.22309118e-05  1.04967257e-05 -2.96896169e-34
   7.71734049e-05  3.49593489e-34  4.57735150e-04 -2.35541885e-34
   1.49711603e-34 -3.63427588e-34  2.48180423e-34 -3.24101792e-34
  -1.61075971e-34 -2.45048787e-34 -3.62808342e-34  5.81363185e-34
   5.45899668e-34  3.83978903e-35  3.12407828e-35 -3.06878320e-34
  -3.24837441e-34  5.82050252e-34  4.42451409e-09 -1.28402187e-34]
 [ 7.74567910e-12 -4.79243169e-34  4.38974406e-34 -4.95767681e-34
  -2.79747819e-34 -5.15157461e-34  6.92313552e-06  7.48522689e-06
  -6.78835556e-24  6.55786152e-07  1.75886281e-34  1.69951504e-34
  -1.96598491e-34  4.89150387e-12  3.98625425e-34 -3.44788656e-34
  -1.32461020e-04  2.33427455e-09 -5.50344037e-09 -2.56521520e-34
  -1.61170777e-09  5.79669601e-34 -8.79818951e-35 -2.29004180e-13
  -8.75585334e-35 -4.85321210e-34 -1.03463448e-04  1.81632454e-09
   1.98773342e-11  5.42083711e-09 -6.92341085e-22  4.06622139e-34
   1.66118658e-34 -2.51783291e-04  6.07692902e-22  2.22610528e-34
   4.77194870e-34 -3.85274518e-34  3.38344008e-34 -4.99247879e-34
  -1.44502934e-11  4.18426030e-34  2.76646902e-34 -8.93516489e-13
   2.41152651e-04  3.64218100e-10  1.31540757e-34 -5.23860527e-34
  -1.39810359e-36  1.15834896e-22 -6.24646054e-05  3.43071309e-34
  -1.51109454e-34 -4.65216583e-35  4.05802231e-35  4.83277446e-22
  -3.65742380e-05 -2.52628889e-34  2.65272341e-34  6.71115267e-05
   1.45011922e-35 -2.22515570e-34 -5.41911712e-34 -5.61285925e-35
  -4.99690894e-34 -1.88312772e-34  1.88729578e-34  7.99865152e-09
  -1.39178531e-34  5.81569953e-34  1.81667438e-05 -3.05969508e-08
   4.63260858e-06  4.64404757e-34 -3.88133541e-34  3.90934386e-34
   1.01319647e-12  2.12650716e-34 -2.43195088e-35 -1.63640307e-05
   2.93012538e-34  1.77301282e-34 -6.08856115e-34 -7.97708890e-06
  -4.21025036e-22  3.16429855e-34  5.26149802e-34  4.85282272e-34
   3.57661054e-34  5.64072719e-34  2.58225068e-34 -7.42662637e-35
  -2.56003568e-34  4.97910754e-34  4.21326563e-35 -1.98359896e-34
   2.09863945e-34  1.09621552e-34 -3.73124642e-10 -4.60695891e-11
   5.30610312e-22 -3.05962537e-34  4.58841179e-34  2.81276696e-34
  -2.67051539e-04  2.44900966e-09  4.08210425e-08 -4.74252461e-34
   2.65752489e-04 -4.62086829e-34 -2.56061812e-05 -1.15286355e-07
   7.19374992e-35 -5.35650735e-34 -5.20314942e-34 -5.15764309e-34
   3.35835453e-34 -3.23645921e-34 -1.97312604e-34  1.40752867e-34
   3.62351782e-34 -3.39342444e-34 -5.22057612e-34 -4.33411196e-34
   4.64476022e-34 -2.67353884e-34  2.10199985e-04 -3.54073592e-35]
 [ 5.56005155e-34  4.60536646e-34 -1.75632448e-34 -5.39931004e-34
  -2.09087843e-35  5.04809161e-34 -3.65223714e-05 -1.02250453e-03
   1.45075922e-12  4.80511234e-34 -2.62149934e-34 -5.01797967e-34
   5.14344165e-34 -1.25800580e-04  4.95052512e-34  4.72983662e-34
  -8.04193376e-04  1.36049836e-13  5.70545285e-34 -5.37038553e-34
   2.67232572e-05  4.22227469e-36  3.59546701e-35  4.34841809e-34
   3.40965636e-34 -1.43881225e-33  1.91800107e-04 -1.19710066e-05
  -2.30039836e-34  4.16660585e-34 -2.07087051e-05  3.12147474e-35
   2.83089254e-34 -3.42911313e-04  5.88556926e-04 -6.34567207e-35
   5.33801536e-34 -3.95512385e-34  1.14787207e-34  4.97335680e-34
  -1.17565598e-34 -3.46831078e-34 -5.55518059e-34 -2.33620686e-34
  -1.76542229e-03  1.07003088e-05  4.95926373e-35 -5.06018956e-34
   5.63398279e-34 -8.14621453e-05 -7.04408158e-05 -4.64912332e-34
   5.93153416e-35 -3.26704410e-34 -3.24452948e-34 -4.94737562e-22
   3.73232644e-03  4.18075632e-34  4.47776655e-34 -6.89378357e-04
  -1.80261324e-34 -1.56054256e-34 -2.11608085e-34  8.91913226e-36
   3.17584043e-34 -3.51545223e-34  1.94416893e-36 -7.18589072e-05
  -5.60352280e-34 -2.60837145e-35  3.78552591e-04 -5.54485093e-34
   1.91563880e-03  5.61910728e-34  5.53377190e-34  6.05576578e-35
  -3.86452584e-34  3.19282885e-34  5.52791739e-34 -4.22238305e-34
  -2.60223042e-34 -3.11772418e-34 -9.86746692e-35  1.94388232e-03
   3.65829510e-05  1.20613940e-34  5.02689139e-34 -4.52649079e-34
  -2.42786787e-34  2.77914048e-34 -4.78899245e-34  5.76853282e-34
  -2.17720173e-34 -4.68830677e-34 -2.08826571e-34 -5.07211440e-34
   4.66480239e-34 -3.34899902e-34  4.56018340e-34 -5.34829358e-34
  -3.93597884e-06  2.82629112e-34  4.99025913e-34 -2.52462391e-34
  -1.95454760e-03  3.28621209e-05 -3.66460176e-06  2.71753447e-34
  -6.45918597e-04 -5.78933172e-34 -8.56415252e-04  4.44765185e-34
  -3.66084481e-34 -2.54766360e-34  7.40446647e-35 -4.22550546e-34
   2.92089913e-34 -2.70284355e-34 -4.46066311e-34  1.54816785e-34
  -1.68998527e-34 -5.37634566e-34  1.16223331e-35 -2.55586681e-34
   4.41894683e-34 -4.71882141e-34 -9.94158676e-04 -3.38061155e-34]
 [-1.39604648e-34  3.58610266e-35 -4.84317310e-34 -3.08601430e-34
   2.29922562e-34  3.12245325e-34 -2.04018725e-05 -1.26511580e-03
   1.21654039e-05  1.75518847e-34 -1.73629240e-34  5.35603440e-35
   2.88504334e-34 -7.32645998e-03 -5.10375403e-34  4.08017671e-34
   1.41051656e-03  1.90574726e-34  2.68289229e-34 -3.28213635e-35
  -6.23669336e-03 -3.11030800e-34  3.53418346e-34  5.34192479e-34
   2.52822799e-34  1.82805993e-09 -3.44943837e-04 -4.45522819e-05
   2.01505078e-34  2.56887393e-34 -5.26644383e-03 -2.62767642e-34
  -2.03096036e-35 -5.43858111e-03 -2.58546119e-04 -4.90427539e-34
  -3.98708031e-34 -4.43543865e-34  2.20904018e-34  5.76968443e-34
  -1.00818340e-07  3.62803107e-34 -3.90710629e-34  2.69877799e-34
  -2.11809034e-04 -1.44931328e-05  3.32760594e-34 -5.72983931e-34
   5.40685157e-34 -4.15811519e-04 -3.25461588e-04 -2.85304418e-35
   3.40720895e-34 -4.74898432e-34  3.23637610e-34  6.59175454e-22
   6.55166456e-04 -1.01796778e-34  1.50538582e-35 -7.28354265e-04
  -2.03801333e-36 -4.08510919e-34 -1.46522432e-34 -4.51697571e-34
  -1.00886619e-34 -5.00029216e-34  2.64614110e-34  4.41840857e-05
  -5.66629236e-34 -2.18672117e-34  1.43034122e-04 -4.49090270e-34
   1.86298578e-03  2.91496701e-34 -1.39448711e-34  5.80068167e-34
  -4.67401028e-34 -1.68713458e-34  2.76788420e-34  4.27649437e-34
   9.28678878e-35  3.25809864e-34 -2.25562874e-22 -5.36148529e-03
  -7.45596888e-04  2.05185570e-34  1.55851805e-34 -1.74478075e-34
   4.65332663e-34 -4.70614765e-34 -2.17685758e-34 -3.25642011e-34
   1.12040189e-34  3.37976896e-34  4.24961687e-34  2.99110943e-34
  -1.71772051e-34 -1.34067461e-34 -2.65395768e-34 -3.61144558e-34
   4.26900624e-06  3.43398634e-34  2.61590242e-34  2.28952137e-34
   6.51706185e-04  1.88060675e-03 -1.97943336e-05 -1.90414484e-34
  -6.90551754e-03  1.06145579e-34 -1.16055477e-02  1.03656929e-34
  -3.68018009e-34  3.27328524e-34 -1.45324461e-34 -5.12474946e-34
  -7.89577030e-35 -3.26057337e-35  3.18465802e-34 -3.41122537e-34
  -8.43652066e-35 -1.85815466e-34  2.90585326e-34  2.81903864e-34
   1.32139145e-34 -2.90997300e-34  8.07227698e-05  6.95476641e-35]
 [-4.81997913e-35 -3.11175763e-34 -4.61436358e-34  5.57243510e-34
   3.28322735e-34 -3.55036648e-34  6.72601687e-04 -1.26219764e-02
   3.47443929e-05 -5.38271123e-34  4.07962156e-34 -1.28017763e-34
  -4.88698460e-35 -3.05101671e-03 -3.66946725e-34 -5.03742492e-35
   3.94172361e-03 -3.20235564e-34  4.06592292e-34  7.25682713e-35
  -9.27337329e-04 -1.16049716e-34 -5.78165152e-34 -1.80631146e-34
  -3.29694339e-35  3.72907660e-09 -5.01085166e-03  4.69891747e-05
   6.42043765e-35  9.92392739e-35  4.34822578e-04 -5.33737526e-34
   1.52481752e-34 -1.85806840e-03  1.73244777e-03  4.68719648e-34
   3.05647082e-34  9.14058667e-35  5.12516800e-35  5.57154476e-34
  -2.12475150e-34  2.94033932e-34 -2.77445205e-34  1.18673502e-35
  -3.03719123e-03  3.13695964e-05  4.88725414e-34 -2.36359221e-34
  -4.46785199e-34  9.77157470e-05  4.69152379e-04 -3.27988179e-34
  -2.72409933e-34  1.04399533e-34 -4.68964504e-35 -1.14614265e-21
   5.13675902e-03 -8.51109682e-35 -2.31595805e-34 -2.71905656e-03
   2.84015782e-34 -4.50499302e-34  5.71986643e-34 -6.15510883e-35
   7.37972139e-35 -2.38831708e-34 -3.90560110e-34  1.57857416e-04
  -8.41820177e-35  7.74319021e-36  3.87048721e-03 -2.77076967e-34
   7.36874109e-03 -1.37384066e-35  2.26916006e-34  3.69074553e-34
   3.76749062e-34 -5.74831707e-34 -4.36284820e-34 -2.62075547e-36
  -4.07467392e-34  4.50174158e-34  1.00734388e-22 -1.52324112e-02
   1.30122236e-04  7.36470170e-35 -2.15337869e-34 -3.14136952e-34
  -2.48903834e-34  5.40548552e-34 -4.54607747e-34 -2.07744336e-34
   1.23934436e-34 -1.97389080e-34 -5.07822008e-34 -2.53942343e-34
   5.64095862e-34 -1.26988804e-34  2.79050099e-34  4.05490909e-35
  -9.15534542e-07 -5.15813694e-35  5.42975397e-34 -2.51512858e-34
   5.93240838e-04  1.05857467e-02 -1.34929796e-05 -4.26386331e-34
  -1.84026212e-02  2.65716871e-34 -9.35911760e-03  4.32018051e-35
  -5.34196796e-34  2.11336711e-34  1.35447921e-34  1.85608354e-34
   3.58133984e-34  3.61510339e-34  5.58724955e-34  1.24713752e-34
   3.32529306e-34  4.55363002e-34  1.89587758e-34  2.45664544e-34
  -9.85182504e-37 -2.95473729e-34 -6.02298090e-03  1.96933002e-34]
 [-2.38636741e-34 -9.67176089e-35 -3.68554787e-36 -8.87026430e-35
   5.07500401e-34 -1.00157571e-35  3.77044023e-04 -1.17487172e-02
   6.13490774e-05  1.96400448e-34 -1.59567848e-34  5.54606270e-35
  -4.23830549e-34 -6.92488300e-03 -4.65800381e-34 -7.30606244e-35
  -2.26010522e-03 -8.79219494e-35  3.03785622e-34  2.63347836e-34
  -2.22837110e-03 -1.63105248e-34  5.01562317e-35  4.77307690e-34
  -4.95121481e-34  1.30491351e-08 -2.39981990e-03  3.49812290e-05
  -1.98894103e-34 -1.21756649e-34  1.57557032e-03  6.02336392e-35
  -2.17822639e-34 -6.08202582e-03  4.96154069e-04 -2.81094127e-34
   4.04469652e-34  9.44278056e-35 -2.01456704e-34 -6.32603018e-35
  -5.66151140e-34  2.97651516e-34 -2.75209102e-34 -3.52434214e-34
  -1.04043884e-02 -1.61987278e-04 -3.61489722e-34 -3.86521231e-34
   4.57616277e-37  1.01467723e-03 -1.09376037e-03 -6.84725459e-36
  -4.89963953e-35 -1.69338376e-34 -5.34309707e-35 -2.98534289e-21
   9.29742586e-03  4.63351129e-34  1.72812042e-34 -7.44800176e-03
  -4.00132445e-34 -3.13227000e-34 -1.60685256e-35  3.57218499e-34
  -3.50145191e-34 -7.28805809e-35  1.72379703e-34 -6.19613711e-05
  -1.97605284e-34  5.50411569e-35  4.09290660e-03  3.05249297e-34
   9.99791641e-03 -4.23691602e-34  2.99762883e-34 -4.62784320e-34
   1.34579685e-34 -1.34399412e-34  6.25235114e-35  1.45370884e-34
  -1.92106806e-34  2.96964793e-34 -1.16770776e-22 -4.93222848e-03
   1.43841805e-03  1.73407790e-34 -7.68168454e-35 -8.63597817e-35
  -1.35940320e-34 -4.12059948e-34  2.96197944e-35  4.96489692e-34
  -1.33665623e-34  5.78369623e-34  2.48812435e-34 -5.70271799e-34
   3.40832750e-35 -3.64349823e-34 -1.94082245e-34 -4.75380660e-34
  -5.76721068e-05  1.94978743e-34  3.93526764e-34  3.05022876e-35
  -3.70337395e-03  1.08598452e-02  3.45615672e-06 -1.48987871e-34
  -2.79578697e-02  2.63569297e-34 -1.35461278e-02  3.69474818e-34
  -2.54741978e-34  1.06212504e-34  4.52381654e-34  1.17603710e-34
   1.17347099e-34  2.77858855e-35  8.01558118e-35 -3.25810024e-34
  -1.82153273e-34 -3.82090444e-34  1.34723040e-34  2.82885218e-34
  -2.84086174e-34 -1.35663619e-34 -1.47587853e-02  4.71506396e-37]
 [-5.47633752e-34 -2.05510254e-34 -1.18014209e-35 -5.21853829e-34
  -2.71642648e-34 -5.55267119e-34 -2.34570308e-03 -2.14909557e-02
  -2.51467020e-04  4.28065451e-34 -9.19439309e-35  2.06632002e-34
   2.73862495e-34 -1.08756432e-02 -1.52234233e-34 -3.08053861e-34
  -3.10174725e-03 -4.90488013e-34  2.50485402e-34  1.86722732e-34
   4.90899477e-03 -2.47064186e-34  3.01788154e-34 -3.14744260e-34
   1.70668314e-34  4.11738347e-06 -5.45867067e-03 -1.65379816e-03
   3.56322437e-34 -2.85350863e-34  5.17647341e-03  5.53611095e-34
  -5.73464184e-34 -1.60914881e-03 -8.35202169e-03 -6.47168759e-35
   7.67110165e-35 -4.47674626e-34  4.65263511e-34  4.12019586e-34
  -3.52174756e-34 -3.31601033e-34 -1.58893133e-34  3.83807240e-34
  -1.44247580e-02 -1.20978395e-03 -1.47892870e-34  1.63579555e-34
   2.55211027e-34 -2.26843893e-03 -1.20003615e-03  7.58384415e-36
  -5.34867011e-34 -9.29071934e-35 -5.52414249e-34  3.58297362e-21
   2.18906142e-02 -8.34485047e-35  3.44852298e-34 -7.43905595e-03
   9.39199323e-35  4.76080539e-34 -4.25302351e-35 -5.02406102e-34
   1.18624829e-34 -5.08072995e-34 -2.89977421e-34 -1.10907760e-03
  -2.24425290e-35  1.96438881e-34  1.29875708e-02  7.79805963e-35
   1.59647148e-02  4.09728382e-34  4.46569799e-34  2.59815108e-34
  -4.07201712e-34 -2.85618357e-34  2.65011987e-35 -4.31080870e-35
   1.24638033e-34  9.17075004e-37  2.81337019e-20 -5.98023785e-03
   5.33839688e-04  1.86375961e-34  3.19143961e-35 -3.18637741e-34
   3.16153683e-34 -5.24130569e-34  1.04373429e-34  9.47770675e-35
   4.11800099e-34 -4.96575420e-34 -4.77641811e-35 -8.16302020e-35
   4.17349627e-34 -5.20292282e-36 -1.37175071e-34  4.66249549e-34
  -4.81084971e-05  3.99100077e-34  1.56726343e-34 -1.00017832e-34
  -1.65195763e-03  5.11390343e-03 -1.30857021e-04 -4.37898921e-34
  -4.69270162e-02 -2.30503858e-34 -6.01121690e-03  2.61088132e-34
   1.80028555e-34  3.03486147e-34 -3.33137165e-34  4.25560546e-34
  -5.39838893e-34  3.06113928e-34  2.29624878e-34 -1.81169657e-34
   1.61662627e-34  4.20813019e-34  5.31616218e-34 -4.86509607e-34
  -1.97236197e-34  2.54519277e-34 -9.60183050e-03  1.52126877e-35]
 [-3.68920660e-34  3.78644110e-34  3.30816666e-34  2.13737888e-34
   2.81261222e-34 -4.30772440e-34 -1.46505190e-02 -1.06494967e-02
  -6.65076356e-03 -2.30079372e-34  1.59520461e-34 -7.78454144e-35
  -1.11323459e-34 -1.56664196e-02  1.43435313e-34  4.74918269e-34
   1.82899379e-03 -3.54001869e-34  9.27549761e-35  2.39900673e-34
   8.72032251e-03  3.19790162e-34 -5.35439789e-34  3.31266247e-34
  -9.10437709e-35  1.78735908e-02 -1.41141163e-02 -8.94568569e-04
   1.02561216e-34  3.82434896e-34  4.02972801e-03 -1.15007543e-35
   4.22789847e-35 -2.70094573e-02 -3.32143307e-02  2.47481578e-34
   3.06014929e-35 -1.89520787e-34  3.25434635e-35 -1.64329312e-34
  -4.81077583e-34  5.85893109e-34 -1.54003512e-34 -2.30976191e-34
  -6.99097291e-03 -2.17883801e-03 -2.77671258e-34  2.69741194e-34
  -1.94125178e-34 -1.69715472e-03  2.20086612e-03 -3.63102445e-34
  -5.06770308e-34  4.44145847e-34  3.28061900e-34  8.30536591e-21
   2.94170696e-02  2.66214481e-34 -4.21421567e-34 -3.43658729e-03
   3.42000599e-34 -3.50473870e-34 -4.41329711e-34  2.35228106e-34
  -1.55592404e-34 -3.73023020e-34  1.59669464e-34 -4.56787646e-03
  -3.70455070e-34 -4.24859107e-34 -2.13577412e-03 -2.06354268e-34
   2.01596878e-02 -1.01841754e-34  3.01906186e-34  3.92097942e-34
  -9.73888919e-35 -2.98214192e-35 -2.47066849e-34  3.69616566e-34
  -5.42036976e-34 -2.63255909e-34 -7.25729560e-20 -2.86195078e-03
  -7.82053731e-03 -5.06696932e-34 -6.63185960e-35  1.16640091e-34
   4.74497570e-34 -4.67173781e-34 -5.34910403e-34  3.65532963e-34
  -1.26780487e-34 -1.43337072e-34 -3.94570429e-34 -2.80004935e-34
   4.05401783e-34  3.32932808e-34  3.70116932e-34  3.71566417e-37
   8.83599976e-04  5.00327727e-34 -1.04517485e-34 -5.23441849e-34
   9.18802619e-03  1.14394119e-02 -8.48316355e-04 -2.76841065e-34
  -8.20463151e-02  2.38715605e-34 -1.52060203e-02  2.53079686e-34
  -3.24381982e-34  3.92590731e-34  2.53164146e-35  4.19500506e-34
   6.61768881e-35  5.73642575e-34  5.00776756e-34  3.36650591e-35
   1.92843269e-34  7.47097947e-35 -6.56144129e-35  3.98545482e-34
   2.33462201e-34 -4.20001560e-34 -1.94214676e-02  2.32335770e-34]
 [-4.54021836e-35  2.06895822e-34 -1.34821763e-34 -3.92744234e-34
   1.99625734e-34 -4.78036038e-34  2.44338647e-03 -1.60016194e-02
  -6.56265765e-03  2.66637659e-34 -3.91373543e-34  3.59704715e-34
   2.67421131e-34 -2.00809427e-02 -1.47570551e-34  5.79128919e-34
   2.22148541e-02  1.47039420e-34  3.19874696e-34 -8.24620307e-35
  -2.05600522e-02 -5.38397076e-34 -5.52325260e-34 -4.96757943e-34
  -1.28792625e-34  1.84214709e-03 -1.61727692e-03 -3.28562246e-03
   4.54845141e-34  4.39538919e-34 -5.45723662e-02 -3.33367535e-34
  -1.49966068e-34 -5.33529967e-02 -4.68803607e-02 -3.64086600e-34
   1.23496323e-34  3.90870514e-34  4.14137267e-34  3.79961031e-34
  -3.81056284e-34 -2.73227958e-34 -4.52802169e-34  4.11765397e-35
   2.48259287e-02 -4.84169135e-03  2.43380090e-34  5.48461879e-34
   2.60620046e-34 -6.25269534e-03  4.31979448e-03  1.36264407e-34
   5.02589268e-34  3.21326041e-34  1.38038302e-34 -1.05010272e-20
   2.96543390e-02  5.67313135e-34 -5.60509915e-34  6.67819288e-03
  -1.23250709e-34  3.52050158e-34  3.71079368e-34 -5.18963123e-34
  -1.17650948e-34  5.18680408e-34  2.49058830e-34 -1.37731265e-02
   2.91382205e-35  3.74024303e-34  7.83750601e-03 -2.06749115e-34
   1.65539030e-02  4.10848500e-34 -8.89481882e-36 -2.86311451e-35
  -1.25711062e-34  1.26321550e-34 -6.61980218e-35 -2.31147740e-34
   1.12107034e-34  1.14183894e-34  1.00939894e-19 -2.10387111e-02
  -8.65137018e-03 -4.97945032e-35  1.07969684e-34 -1.15935380e-34
  -1.55987469e-34  1.56159488e-34 -3.24858195e-34 -8.49786218e-35
   4.17063421e-34 -2.67123308e-34  2.57686844e-34  4.03204710e-34
  -3.01569310e-34 -1.19321826e-34  3.85685758e-34  2.97941039e-36
  -3.85407155e-04  2.03395788e-34 -1.79098572e-34 -2.46230526e-34
   3.24668325e-02 -1.16519332e-02 -5.88503724e-04 -1.91113490e-34
  -6.36856332e-02  5.59623289e-34  2.09751409e-02  1.91684741e-34
   9.09926070e-35  5.06290123e-35  2.83629269e-34  3.46379844e-34
  -1.71558350e-34  2.76367423e-34  2.53265079e-34 -2.23499083e-34
   3.23241248e-34 -2.81110222e-34  4.00749304e-34 -1.24704339e-35
   4.04144095e-34  1.98727422e-36 -1.52088124e-02  2.63802192e-34]
 [-3.36157003e-35 -3.32472047e-34  2.53696385e-34 -5.83424019e-35
  -5.84464516e-35  6.01392438e-35  8.17629695e-03 -2.63730958e-02
  -6.63391920e-03  2.81504058e-34 -2.84556234e-34 -1.71966283e-34
   6.53421609e-36 -3.88062894e-02 -4.79810713e-34 -1.35892163e-34
   1.64050013e-02  3.83634979e-34 -3.70031777e-34  1.29791405e-34
  -2.63821222e-02 -1.93635442e-34  3.23717093e-34 -4.11140583e-34
  -4.18826846e-34 -3.62988823e-04  1.46562075e-02 -4.11296263e-03
  -3.78615917e-34  5.20146378e-35 -1.69169623e-02 -5.48766910e-34
  -8.39231105e-35 -8.25551674e-02 -3.13023143e-02  5.40941608e-34
  -3.03150695e-34 -2.19421518e-34 -5.62061338e-34 -2.39764228e-34
  -3.30525019e-34 -4.01586339e-34 -4.60190656e-34 -1.21121710e-34
   5.71974814e-02 -4.96773142e-03  3.97721810e-34  3.57265633e-34
  -1.84427017e-34 -1.15149291e-02 -4.26065456e-03 -3.79259041e-34
   5.81539325e-35 -4.86874194e-34  1.50401644e-34  1.33736493e-20
   1.25136301e-02 -1.81490634e-34  1.51224524e-34  6.58611627e-03
   9.18732635e-35  8.58551801e-35  3.22404351e-34  5.55075963e-34
   5.14406522e-34  4.57870891e-34 -1.63999255e-34 -1.99166778e-02
   2.46365777e-34 -1.92492641e-34 -8.32402986e-03  2.34402757e-34
  -1.26272056e-03 -1.86755104e-34 -2.50294201e-34 -4.46655389e-34
   2.93210627e-34  3.24377092e-34 -2.51797801e-34  2.39770197e-34
   1.18316445e-34 -4.32845076e-34 -4.57827586e-21 -1.30588617e-02
  -5.98456431e-03  1.73790641e-34 -4.72238187e-34  2.88435503e-34
   1.00587201e-34  3.81413456e-34 -4.01905973e-34 -1.53908784e-34
  -2.35827240e-34 -4.35007434e-34 -2.97482608e-34 -4.75862842e-34
  -3.10115728e-35 -3.47672773e-34 -1.13992945e-34  3.78943132e-35
  -1.30690332e-03  2.08158755e-35 -3.29980573e-34  3.26059473e-34
   1.97537225e-02 -6.07836209e-02 -1.17888779e-03  1.60915052e-34
  -5.53492457e-02 -5.27851927e-34  2.26280931e-02 -4.73335576e-34
   2.62068659e-34 -5.05277339e-34  4.77751583e-35  1.10597304e-34
  -9.23279984e-35 -5.72249476e-34  1.35464187e-35 -6.77857140e-35
   2.01513740e-35  5.38917507e-34  4.22356406e-34  5.81751374e-34
  -3.49158671e-34  3.30612952e-34 -2.41252268e-03 -3.75234442e-35]
 [-1.15398487e-34  3.75384455e-34  3.24155470e-34 -1.33180801e-34
  -3.02517971e-34  2.72499197e-34  9.35103372e-03 -3.46195213e-02
  -1.06619182e-03  5.56114898e-35 -2.89683662e-34  4.96215609e-34
   5.02490453e-34 -4.37658019e-02 -1.37544847e-34  1.10871984e-34
  -1.18935900e-02 -4.31154476e-34  1.19538902e-34  2.10550829e-34
   6.25302456e-03 -2.13687677e-34 -2.24498896e-34  2.87390025e-34
   1.12090825e-34 -2.25658598e-03  4.34159897e-02 -4.03947243e-03
  -3.26435263e-34  1.06424426e-34  7.03885183e-02 -1.18735835e-34
   3.03341483e-34 -1.14569120e-01  3.26566286e-02  1.56973667e-34
  -3.17159511e-34 -3.20039449e-34 -2.25488102e-34 -3.65613342e-34
  -2.73072790e-35  4.81198668e-34  3.77977499e-34  1.08183959e-34
   7.94595778e-02 -5.46439970e-03 -2.42099490e-34 -4.87728815e-34
   7.87056949e-35 -1.19451899e-02  5.52700250e-04  4.91487045e-35
  -4.99299996e-34  3.19039292e-34 -1.09913153e-34  9.75543372e-21
   8.57851375e-03  3.91934842e-34 -1.68672488e-34  2.96217855e-03
   5.85229873e-34  5.18559139e-34 -5.48595270e-34  2.89641119e-36
  -4.04639135e-34  4.48209384e-34 -1.60607564e-34 -2.75400840e-02
  -3.48284558e-34 -5.38753489e-34  1.32432152e-02 -4.40336143e-34
  -1.33998897e-02 -2.39598764e-34 -1.88827774e-34  1.13386130e-35
   4.33421206e-34  1.28427579e-35  2.77153466e-34 -3.13684961e-34
   3.51972809e-34 -4.27827873e-34  4.34622262e-21  3.06213181e-02
   3.11567972e-04  2.34334845e-34  1.26723273e-34 -1.11858550e-34
  -5.34950489e-34  3.57918928e-34  2.95190073e-34 -9.48580434e-35
  -8.90064922e-35  2.74864076e-34 -3.82926554e-35  1.88209525e-34
  -4.72170596e-34 -7.42132000e-35 -1.76929819e-34 -3.08760076e-34
  -2.05850578e-03 -2.89193019e-35 -5.14349079e-34 -4.45840855e-34
  -2.03410648e-02 -1.49069816e-01 -2.31426116e-03  2.88000478e-34
   4.53666877e-03 -5.44971441e-34 -5.97702386e-03  4.83695079e-34
   3.18441810e-34 -5.05880698e-34  2.31931739e-34 -2.69106519e-34
   7.62202705e-35  5.24984088e-34  3.07015431e-34  2.28599488e-34
   2.42048889e-34 -5.73655799e-34 -5.93043788e-35  3.70776150e-34
   4.13557997e-35  2.34349148e-35  5.62332431e-03 -3.81747875e-34]
 [-1.90862814e-34 -4.24573958e-34  4.12621568e-34  2.67546165e-34
  -3.23775914e-34 -1.97529474e-34  1.67618357e-02  7.70403212e-03
  -4.58057708e-04  3.32349676e-34 -2.27681111e-34 -7.60164072e-35
  -3.91161357e-34 -4.94539998e-02  2.21021545e-34  3.44806863e-34
  -1.14139076e-02  1.65023772e-34  5.07810759e-34  2.68902782e-34
   7.37894699e-03 -2.38247106e-34 -1.12882906e-34  2.14897724e-34
   2.59497380e-34 -7.86730088e-03  5.56310378e-02 -8.77236389e-03
  -3.07408510e-34 -2.98625432e-34  3.14192288e-02  5.64651237e-34
   3.50950129e-34 -5.36808670e-02  4.84778881e-02  3.54643110e-34
  -1.16291449e-34 -1.94696119e-34  1.55856994e-34  4.79688893e-34
  -1.39084078e-34 -1.93615101e-34 -5.88260765e-35 -4.84878333e-34
   1.76608823e-02 -4.78429766e-03  1.43731092e-34  1.69944834e-34
  -4.62965603e-34 -5.92711498e-04 -3.22371791e-03  5.64878116e-34
  -6.65708854e-35 -1.51884936e-34 -2.95975289e-34 -6.64407826e-21
   1.50572257e-02 -1.95665075e-34 -2.78206039e-34 -4.13160305e-03
  -5.85757789e-34  4.39004523e-35 -3.35972540e-34 -5.69022790e-34
   4.36996591e-34  3.41521976e-34  3.66452053e-34 -2.12984774e-02
   5.11015909e-34  2.09127516e-34  5.62224351e-02 -4.91657124e-34
  -6.96524139e-03  1.66162750e-34  1.83470366e-34  2.38753441e-34
   1.18309328e-34  4.83933748e-35 -8.19592084e-35 -9.24882169e-35
   2.89718858e-34 -2.05022516e-34 -6.64924030e-20  5.33802919e-02
   6.78738439e-03  2.89249648e-34  2.01928922e-34 -5.34804563e-34
   1.94349371e-34 -1.55388989e-34  2.91665105e-34 -3.89983705e-34
   1.28710088e-34  5.32928180e-34 -2.15692537e-34  3.12021177e-34
   3.08806384e-34  1.88498761e-34 -1.28546254e-34  1.07079178e-34
  -3.00329155e-03 -1.74932064e-34  3.89893798e-34  4.26818371e-34
  -3.78371365e-02 -1.92544058e-01 -1.14667253e-03 -2.27701406e-34
   4.81240228e-02 -3.22603198e-34  1.22134127e-02 -5.26183092e-34
   4.45504507e-34 -2.10420331e-34 -2.93321978e-34 -2.09611421e-34
   2.56049026e-34  1.75229887e-34 -1.36297548e-34 -2.73239943e-34
   2.99115282e-34 -1.79646968e-34 -1.57969072e-34 -5.06397548e-34
   3.57401619e-34  4.14014483e-34 -5.37655922e-03  3.53606884e-34]
 [-7.59801092e-35  5.23064175e-34  5.76512250e-35  1.74439562e-34
  -4.38310344e-34  4.86759698e-35  2.96310838e-02  4.67330143e-02
   1.79780333e-03  3.72720698e-34  3.27777967e-34 -2.41279445e-34
   1.77733070e-34 -3.62168290e-02 -5.70780292e-34  2.25043113e-34
   1.12282541e-02 -4.58181938e-34 -5.24067249e-34 -8.92279880e-35
  -1.19393663e-02 -3.15143515e-34  2.31831662e-34  4.62942920e-34
   3.17620273e-34 -1.51328277e-02  5.53484224e-02 -1.09026330e-02
   7.75902954e-35 -5.15744243e-34  3.81979812e-03  4.10381333e-34
  -1.20441714e-34  3.32794599e-02  4.19258252e-02  4.43215691e-34
   5.25113944e-34  2.07667447e-34  2.78854397e-34  1.32312439e-34
  -4.35224212e-34 -3.11825177e-34 -2.14411524e-34 -3.05880132e-35
  -4.12342027e-02 -4.66481876e-03  2.25088066e-34  5.76018038e-34
   2.34908128e-34 -4.54688258e-03 -1.23445224e-02  2.07083488e-34
  -5.59613509e-34 -3.44413416e-34 -1.74310636e-34  2.09754166e-20
   1.50010642e-02 -4.74916340e-34  2.18538910e-34 -1.21029979e-03
   1.23718152e-34 -1.16419112e-35  1.94980993e-34  4.63193172e-34
  -3.74700809e-34 -5.31560795e-34  1.19439995e-34 -1.67914573e-02
  -4.25284351e-34 -3.28452568e-34  4.98971120e-02 -1.82477154e-34
  -1.19139086e-02  2.22833436e-34  1.22053576e-34  1.82245935e-35
  -3.65658089e-34 -3.83730259e-34 -4.79305709e-34  2.45771395e-34
  -1.89312435e-34 -3.21299225e-34  7.71209243e-20  5.20285815e-02
   1.61865912e-02  2.03514531e-34 -1.56940159e-34 -2.83463506e-34
   2.85654586e-34 -5.45133668e-35 -1.83251029e-34 -1.55045478e-34
   2.19122869e-34 -1.63438393e-34  2.92522114e-34 -1.47297616e-34
   2.75889488e-34  3.38666994e-34 -8.57552688e-35 -1.88320268e-34
  -3.36884428e-03 -5.79420864e-34  1.74831608e-34 -4.05215678e-34
  -1.87937766e-02 -9.64437798e-02 -3.80211952e-03 -4.15848897e-34
   5.71872406e-02  2.85799755e-34  3.00204623e-02 -3.74593086e-34
  -2.31093121e-36  4.84616832e-34  3.43674715e-34  9.96886938e-35
  -3.03534682e-35  4.33939422e-35 -2.61407949e-34 -2.56191280e-34
  -1.02726520e-34  5.04017172e-34 -6.31534340e-35  5.03680457e-34
  -3.40248608e-34 -2.41167383e-34 -1.15203494e-02 -2.74358912e-34]
 [-4.34108365e-34 -1.86727438e-34 -3.17472440e-35 -4.05235055e-34
  -1.14491979e-34  1.14448472e-34  2.64501926e-02  2.30197478e-02
   4.09514224e-03 -1.60280997e-34 -4.76071366e-35 -9.40401852e-35
   1.97117569e-34 -1.64542906e-02 -2.18684905e-34 -1.33890827e-34
   1.67886913e-02 -5.69491427e-34 -5.24193614e-34  1.22868639e-34
  -1.13535337e-02 -3.60594900e-34 -1.65395223e-34 -7.94174372e-35
  -3.31687795e-34 -2.28075087e-02  4.75966595e-02 -1.43643757e-02
  -1.35609987e-34 -5.67858408e-34  6.00308459e-03  1.95184294e-36
  -2.35179180e-34  1.54046081e-02  1.55603560e-02  5.73991779e-34
  -1.51874295e-34 -3.93400858e-34 -2.40654941e-34  2.90970438e-34
  -3.63518758e-34  2.50795451e-35 -2.70381815e-34 -1.29208893e-34
  -3.40142264e-03 -3.45879351e-03 -1.19294355e-34 -2.31955729e-35
  -3.46247555e-34 -1.00825708e-02 -9.80450213e-03  5.20639443e-34
   4.34222654e-34 -1.42311912e-34  7.58335168e-35 -3.32239355e-20
   2.88994168e-03 -2.59852497e-35 -2.87913831e-34  5.65894600e-03
  -4.67942123e-34 -4.87975715e-34 -7.94693645e-35 -2.41618042e-34
   2.80382310e-34 -4.97631620e-34 -6.00176765e-35 -7.56289810e-03
   2.18245909e-34 -5.49340423e-34  8.05663317e-03  1.14291468e-34
  -1.89897250e-02  2.36887389e-34 -1.03038554e-34  2.07860921e-34
  -3.63091838e-34  8.39120730e-35 -5.16146655e-35 -2.77391205e-34
   5.76334686e-34  4.02275473e-34 -2.51678594e-19  3.67508605e-02
   1.88580416e-02 -1.99794206e-34 -3.26184139e-34  9.47782039e-35
   4.50567490e-34 -1.09285618e-34 -5.48922985e-34 -3.48515651e-35
   2.81641880e-34 -1.91111194e-34 -1.14298160e-34 -1.96037377e-34
  -1.33422225e-35  1.18551682e-34 -2.04325094e-34 -2.18742945e-34
  -2.92044203e-03  5.96676513e-35  3.56503858e-34 -3.23178203e-34
   3.47891916e-03  6.98423088e-02 -3.97815974e-03  6.56295715e-35
   4.72107753e-02 -1.36921019e-34 -1.26140323e-02  1.00020897e-34
   1.20176435e-34  8.48065795e-35 -1.37112921e-34  4.77483418e-34
  -9.92302912e-36 -7.56205905e-35 -1.62489652e-34 -2.88146772e-34
  -2.29471857e-34  1.01299477e-34  1.54880438e-34 -3.86580235e-34
   3.05951769e-34  2.29584952e-34 -4.39810427e-03 -4.22574194e-34]
 [ 5.80584925e-34  1.17943788e-34 -4.07385848e-35 -1.19851062e-37
  -5.06262917e-34  2.35508158e-34  3.11348550e-02  1.50784254e-02
   3.31946556e-03  4.64938436e-36 -3.19751315e-34  2.57027304e-34
   2.56409389e-34 -6.29508216e-03  4.98891879e-34  1.95511435e-34
  -3.04644555e-03  1.39476675e-34 -1.59619678e-34  2.09605061e-34
  -1.16569689e-02 -3.26627705e-34 -1.36692401e-35 -3.95527309e-34
  -3.12090720e-34 -2.69550718e-02  6.21359162e-02 -1.46509670e-02
  -2.85728973e-34  3.06693295e-34  3.89572680e-02 -5.60592383e-34
  -1.71461371e-34  4.05371077e-02  2.44397931e-02  1.72564717e-34
  -5.50829122e-34 -2.60287671e-34  3.38613867e-34  5.18033748e-34
   6.87484542e-36  9.09584844e-35 -7.76918827e-35  6.18030963e-35
  -1.67261586e-02 -3.20564001e-03  1.04185488e-34  4.22385139e-35
  -1.69721617e-34 -1.15879579e-02 -7.07336096e-03  3.78678893e-34
  -2.50094413e-34 -8.19371679e-35  9.26688229e-35 -4.77324976e-21
   2.54225009e-03  4.54416178e-34  3.23424299e-34 -5.59883774e-04
   1.25766933e-34  5.80160737e-34 -4.14729606e-34 -5.50363884e-34
  -1.69728585e-35 -1.86412741e-34  4.41828057e-34 -2.18949541e-02
   5.19875922e-35 -4.98760003e-34  1.67471487e-02 -2.63977231e-34
  -1.94757711e-02  2.19380284e-34  4.49074061e-34 -5.73161586e-34
  -1.43041178e-34  1.74831458e-34 -2.95237747e-35 -4.89501929e-34
   1.93705191e-34  5.09549526e-34  1.35200694e-19  3.66972014e-02
   3.06632891e-02 -9.22097315e-35 -2.58585523e-34  3.20328524e-34
   3.51884486e-34  5.54489926e-35 -3.66074701e-34 -3.31836361e-34
   2.99120678e-34 -1.89425049e-34 -5.23023699e-35 -4.03968047e-34
  -9.55461955e-36 -4.27986794e-34 -1.53446702e-34 -2.42906747e-34
  -2.85753654e-03  2.65030125e-34  3.75279694e-34  3.03771870e-34
  -2.07051840e-02  2.30791476e-02 -1.77624018e-03  4.77619701e-34
   8.34513754e-02 -4.28872594e-34 -4.12029438e-02 -1.27754769e-35
   4.91189268e-35 -3.60897486e-35 -1.91514593e-34 -3.64775183e-34
  -1.64637787e-34  1.97189177e-34  2.57751243e-34 -2.61863683e-34
   2.18644314e-34 -2.23381866e-35  1.62317047e-34  6.47735958e-35
  -4.11311075e-34  5.81429720e-34 -4.55862191e-03  6.29365013e-35]
 [-3.55021151e-34  1.67342331e-34 -8.50640202e-36  2.85195294e-34
  -5.30221742e-34  1.94639158e-34  2.90014520e-02  3.06025688e-02
   4.92888317e-03 -3.85492754e-35 -2.93713955e-34  4.12020872e-34
   5.73927885e-35 -2.40168553e-02  2.83471496e-34  3.60952966e-34
  -7.52038602e-03 -2.32875257e-34 -5.39783929e-34 -6.94243061e-35
  -1.20825702e-02 -3.09926409e-34 -3.04316500e-34  2.99906399e-34
  -3.15407542e-34 -2.41711792e-02  7.05967918e-02 -1.61080491e-02
  -3.76325057e-34  1.54528513e-34  3.91430892e-02 -4.47217928e-34
  -9.87640022e-35  4.66796570e-02  3.99744548e-02  5.77421077e-35
  -2.86481106e-34 -5.11706512e-34  3.13792753e-34 -3.03215416e-34
  -3.32315605e-34  1.95322299e-34 -3.65053880e-34 -3.17175697e-34
  -2.79104076e-02 -4.90983017e-03  1.13191990e-34 -2.36418477e-34
  -3.62335113e-34 -1.23707149e-02 -9.44303256e-03  2.39412475e-34
   2.90917587e-34 -1.88719060e-35  1.04401186e-34 -1.07452514e-20
  -2.62509403e-03 -2.47028852e-34  1.45216577e-34 -1.96092809e-03
   4.55699762e-34  5.50184529e-34 -4.10701104e-34 -3.26162925e-34
   2.41690271e-34  5.46097436e-34  2.99508671e-35 -9.27674863e-03
  -4.24619497e-35 -3.70204750e-34  2.07910668e-02  8.28824651e-35
  -2.30524745e-02  2.93920401e-34 -8.58620276e-36 -1.20974670e-34
   2.46375672e-34  1.37583119e-34 -1.80995006e-35  1.74259760e-34
  -1.30088045e-34 -3.17777151e-34 -1.19920613e-19  5.44544831e-02
   2.49470584e-02  2.66055996e-34 -1.16020477e-34  5.70629131e-34
   4.23990665e-34  5.69866804e-34  8.93837295e-35 -3.74823501e-34
   2.64633189e-34 -3.27874044e-35 -2.03196065e-35 -3.15180226e-34
   2.45811297e-34  3.90134407e-34  2.69030915e-34 -2.52006152e-34
  -5.49951335e-03  1.51705639e-35 -3.87442479e-34 -3.12662189e-34
  -3.47272567e-02  3.55913043e-02 -4.11416404e-03  5.14704666e-34
   9.66390148e-02 -2.05824446e-34 -6.04750961e-02  3.33472411e-34
  -4.52630126e-35 -4.39517200e-34 -2.91687995e-34 -3.26543469e-34
   1.16810687e-34 -2.06788828e-35 -3.69581141e-34 -2.57907662e-34
   1.40623919e-34  1.74254146e-34  5.29504300e-35 -1.31196442e-34
  -3.19246496e-34  5.15136522e-35 -4.41298960e-03  5.03821700e-35]
 [ 1.60342170e-34 -3.53873758e-34 -1.38023447e-34 -3.73477859e-35
  -1.45385095e-34  3.34370080e-34  2.79178899e-02  2.12270766e-02
   2.32116040e-03  3.19092396e-34  2.75124568e-34  2.75897042e-34
   4.85799535e-34 -6.72482792e-03 -2.51624254e-34  4.73795671e-34
   9.37736593e-03 -2.26974827e-34  2.61980360e-34  6.60250152e-36
  -2.45813970e-02 -3.74366023e-34  1.15139752e-34 -2.94502753e-34
  -3.43532117e-34 -2.28778608e-02  4.64149527e-02 -1.50890127e-02
   1.17088444e-34  7.95961721e-35  4.50203801e-03 -2.98509972e-34
  -1.98386735e-34  5.91851622e-02  3.06136291e-02 -1.22529071e-35
  -4.71599517e-34 -4.94213962e-34  1.03078204e-34 -4.92054497e-34
  -4.60228997e-35 -3.21278080e-34 -4.18730327e-34 -4.82584971e-34
  -1.31196808e-02 -1.35473011e-03 -3.07053703e-34 -1.30952355e-34
   3.08006726e-34 -1.33331465e-02 -9.60376870e-04  2.93863187e-34
   1.22260895e-34 -9.04070983e-35  9.13304641e-35  4.20239287e-20
  -1.13823088e-02  1.87987261e-35 -1.93623664e-34  1.36339804e-03
   2.41683934e-34  4.58241935e-35 -2.87726556e-34 -1.56174044e-34
  -2.59825784e-34 -1.70195247e-34  4.54012101e-34 -1.35622350e-02
  -3.59752929e-36 -5.10824937e-34  2.12447960e-02  3.87480935e-35
  -1.93815809e-02 -3.48975322e-34 -2.59214688e-34 -2.54123351e-34
  -3.41754779e-34  1.54566349e-34  2.06224550e-34  1.11866333e-34
  -4.34289786e-34  4.93451865e-34  1.77788256e-20  1.54882241e-02
   2.59578936e-02  4.50763559e-34 -1.99621601e-34 -4.48445952e-34
   3.38872935e-34 -4.30762201e-35  1.29326396e-34 -3.72856982e-34
   4.11435421e-34  2.22885645e-34 -1.75514795e-34 -2.17071654e-34
   3.02152833e-34 -3.67492159e-34  6.30706558e-35 -3.43011042e-34
  -1.17292849e-03  5.75303007e-34 -4.72515611e-35 -1.11340460e-34
  -5.85291767e-03  6.06264509e-02 -5.32145007e-03  2.45272062e-34
   9.23631936e-02  2.05440069e-34 -2.53844149e-02 -1.57935667e-34
  -3.27410017e-35  5.29621827e-34 -5.82484956e-34  2.46476140e-34
   1.51616421e-34  2.90379293e-34  1.26725271e-34 -2.64020141e-34
   7.86444521e-35 -3.61329652e-34  1.81272926e-34 -4.67217357e-34
  -4.08676636e-34  8.93294317e-35 -9.73180518e-04 -3.23115502e-35]
 [ 1.90878632e-34  1.21756729e-34  2.37257937e-35 -2.97497049e-34
  -4.48520155e-34  2.68134256e-34  1.68416370e-02  2.51143873e-02
   3.18274717e-03 -2.64997638e-34 -1.07873096e-34  1.70901577e-34
  -3.47393478e-34 -1.76576357e-02  2.67030095e-34  7.13506359e-35
  -2.93186144e-03  2.91965843e-34 -4.62967440e-34  1.27328216e-34
  -6.51947828e-03 -3.21158579e-34  4.47212372e-34 -2.40216725e-34
  -3.78154168e-34 -1.85914207e-02  4.17499393e-02 -1.16115240e-02
   8.87619802e-35  1.96849639e-34 -1.45254973e-02  2.62272397e-34
  -1.48891030e-34  4.88912128e-02  3.15296873e-02  7.33686234e-35
  -2.49044871e-34 -2.55256962e-35 -1.61493443e-34 -4.51736969e-34
   2.90553878e-35  2.03798073e-34 -1.11849378e-34  4.25477114e-34
  -2.88359821e-02 -2.95631518e-03 -4.05699789e-34  1.50830171e-34
  -1.59415103e-34 -1.30449729e-02 -2.45839474e-03 -9.06285481e-36
  -6.81661483e-35 -1.29915337e-34  3.32902640e-35  2.80969150e-20
   2.10371241e-02 -5.37760931e-34  2.43743598e-34 -1.92462618e-03
  -3.20225118e-34  2.04844079e-34  1.72174726e-34  4.10850337e-34
   1.68653157e-34  1.76617923e-34  1.50865333e-34 -1.14832474e-02
  -5.47660660e-34 -4.50541087e-34  6.08235374e-02 -1.21737398e-34
  -9.15582851e-03  2.34621326e-35  5.41631430e-34  5.09189577e-34
  -7.78004954e-35  8.93040450e-35  2.47216610e-34  2.80221851e-34
  -3.36239644e-34 -1.56029392e-34  9.58056741e-20  3.46988365e-02
   1.24666644e-02  2.61768908e-34 -2.50958562e-34  2.15217771e-34
  -3.61095977e-34 -2.05701364e-34  3.53633310e-34  2.38321424e-34
   2.64220273e-34 -1.44987241e-34 -1.30761751e-34 -1.82243800e-34
  -3.54082546e-34 -4.64644677e-34  3.75553226e-34 -2.33778597e-34
  -3.51380766e-03 -4.13924622e-34  3.11693485e-34  5.37092093e-35
  -2.41449438e-02 -6.68347701e-02 -3.64391482e-03 -5.10854807e-35
   7.95882791e-02 -5.51509807e-34  1.82852279e-02  2.07743601e-34
   1.01364875e-34 -2.23718707e-34 -5.67778741e-34  2.89427671e-34
   2.28896071e-34  3.52391074e-34 -4.86285712e-34 -2.53268248e-34
   1.10061261e-34  1.37327093e-34  1.72679225e-34  9.72298902e-35
  -3.25988874e-34  4.20479931e-34 -7.74234068e-03  5.70081516e-34]
 [-1.18629914e-34  1.16029879e-34  4.98015998e-34  4.76282531e-34
  -3.47794501e-34  4.40100355e-34  5.95197687e-03  1.75069794e-02
  -7.86348712e-04 -2.35011167e-34 -3.24310810e-34 -2.41997185e-34
  -1.01476042e-34 -3.68050225e-02  3.39794894e-34 -5.68092543e-35
  -2.29112823e-02  3.03468905e-34  1.56413230e-34 -1.67088877e-34
   5.75215649e-03 -2.70881056e-34  2.19024605e-34 -1.73192746e-34
  -3.97881603e-34 -1.42541109e-02  3.97485346e-02 -8.00161436e-03
  -4.63163687e-35 -6.31629332e-35  5.51145663e-03 -4.59531920e-34
   8.94007650e-35  6.24668738e-03  4.70337011e-02 -1.30953365e-34
  -4.20870875e-34  5.43630321e-34  1.64628294e-34 -3.01650240e-34
  -7.41876066e-35  1.21563817e-34  4.53904195e-34 -4.19195107e-34
  -2.11246908e-02 -1.50057394e-03  3.14934911e-34  2.43898347e-35
  -8.82183256e-35 -4.51158918e-03 -3.35907377e-03 -2.17102189e-34
   6.62047085e-35 -1.72041634e-35 -3.73124338e-34 -2.48694840e-20
   3.43963504e-02 -2.66426162e-34 -2.38858638e-34 -7.56814191e-03
   3.31100116e-34 -1.13703238e-34  1.93338194e-34  1.79555029e-34
   1.09101557e-34 -3.91730691e-34  5.19855627e-34 -4.21744911e-03
   2.63393892e-34 -2.87217971e-34  7.41424784e-02 -1.22432925e-34
   6.95931725e-04  9.41371462e-35 -1.87614500e-34 -3.20877195e-34
   1.22384057e-35  1.55459335e-34 -1.77544945e-34 -2.68606888e-34
  -4.35043709e-34  3.98647465e-34  6.85547452e-20  4.94113341e-02
  -2.44786404e-03 -3.48019865e-34  4.78468261e-34  5.02593997e-34
  -2.43743713e-34 -1.55319722e-34  3.58432047e-35  3.46690753e-34
   2.03057190e-34  1.49757142e-34  1.54919950e-34  4.23621807e-34
  -1.85531028e-34  2.68552934e-34  2.80881459e-34 -1.21852227e-34
  -7.22216326e-04 -4.13318507e-34  4.09049856e-34 -8.63925096e-35
  -4.81554307e-02 -2.10209474e-01 -1.86203572e-03  4.96396249e-34
   5.85540384e-02  2.96541179e-34  3.40459161e-02 -2.07241629e-34
   2.42824256e-34  1.73982026e-34 -1.78781625e-34  2.91248860e-34
   3.05822620e-35  3.58125432e-35  2.37978671e-34 -2.47931962e-34
  -2.38302069e-34  2.80863942e-35 -3.36798715e-34 -2.19916878e-34
  -2.68823114e-34 -2.30581597e-35 -1.08126374e-02 -3.04243583e-34]
 [-3.63053410e-35  2.85173001e-34  3.53487819e-34 -1.12257116e-34
  -3.10732794e-34 -5.13560671e-34 -6.35304768e-03 -1.72934774e-02
  -2.69476906e-03 -2.62775288e-34 -2.19057275e-34  1.39517220e-34
   1.84527335e-34 -3.40870023e-02  2.58635022e-34  3.92711816e-34
  -3.60778160e-02 -7.17905624e-35  4.89796859e-34  5.86294751e-34
   1.60283130e-02 -2.45305720e-34 -2.76785481e-34  1.39924040e-34
   2.65102744e-34 -1.40524786e-02  1.98795870e-02 -2.63173226e-03
  -3.85098952e-34 -2.32546808e-34  5.01680337e-02 -1.11012550e-34
   4.18529116e-34 -8.22907686e-02  1.59450844e-02  2.43323841e-34
   4.47150245e-34 -9.31132379e-35  9.12949582e-35 -2.04836801e-34
   3.46950326e-34 -1.50596588e-34  5.79820486e-34 -2.11008411e-36
   6.61438704e-02  3.03308654e-04 -2.60121632e-35 -3.90650385e-34
   4.10067118e-34 -5.51809743e-03 -8.72674771e-03 -2.49248906e-34
  -2.12110081e-34 -5.31045047e-34 -2.28810458e-34  2.77785538e-20
   3.38712372e-02  5.67349410e-34  1.64688320e-34 -1.83405611e-03
  -4.57173447e-34  5.38325168e-34  4.61073471e-34  4.82222588e-34
   3.13565184e-34  4.90407748e-34 -2.70355091e-34  3.56108794e-05
   5.25287513e-34  1.20713641e-35  3.90622541e-02  3.88170275e-34
  -1.24127679e-02  1.11800326e-34 -2.92071316e-35 -3.04237499e-34
   2.29334494e-34 -1.91004424e-34  3.10992872e-36  4.19199974e-34
   7.41259046e-35 -2.30989438e-34 -2.46972899e-20  3.47935297e-02
   5.93703799e-03  5.02974793e-34  1.26593441e-34  5.76003023e-35
  -9.44629958e-35 -2.57323221e-34 -3.72637954e-34 -4.10629977e-34
   8.00129789e-35  3.23296211e-34 -5.43160181e-36  2.42921142e-34
  -5.43809447e-34  1.33533265e-34  8.42620065e-35  9.49281598e-35
   2.22806539e-03  5.03615989e-35  3.77454864e-34 -2.30580679e-34
  -4.28331047e-02 -2.01105580e-01  1.67938508e-03 -3.42190791e-34
   4.09557745e-02 -3.94896031e-34  4.76520658e-02 -2.79457114e-34
   3.42234987e-34 -3.15119913e-34  3.17882692e-34 -2.70870633e-35
   5.62307767e-35  4.77949207e-34  1.90688717e-34 -2.78948896e-34
   2.47751965e-34  2.94300898e-34  2.09130748e-35  4.22976112e-34
  -2.42255266e-34 -3.81954022e-34 -8.40008724e-04 -1.74946942e-34]
 [-2.16158580e-34  5.84208203e-34  2.85466806e-34 -4.75245111e-34
  -3.21249657e-34  1.17951537e-34 -1.22599304e-02 -2.61719208e-02
  -3.14050145e-03 -5.00553596e-34  5.06250519e-34  2.85050401e-34
  -5.34263239e-34 -3.42742614e-02  4.25188888e-34 -9.01970361e-35
  -2.95909978e-02  3.60438068e-34  1.97463582e-34  4.05026956e-34
  -3.12260538e-03 -2.17539051e-34 -2.15349417e-34 -4.39708356e-36
   7.77482295e-35 -1.10385725e-02 -3.62776313e-03  5.10647718e-04
   4.70119726e-34 -3.38884828e-34  1.32021308e-02  1.34800458e-34
   1.86135467e-34 -8.98268819e-02 -4.21927385e-02  3.79033699e-34
   9.69512154e-35 -5.00866480e-34 -2.49265850e-34 -4.20721872e-34
